function [Y,Xf,Af] = NNCircle2(X,~,~)
%NNCIRCLE2 neural network simulation function.
%
% Auto-generated by MATLAB, 06-Apr-2023 06:34:08.
% 
% [Y] = NNCircle2(X,~,~) takes these arguments:
% 
%   X = 1xTS cell, 1 inputs over TS timesteps
%   Each X{1,ts} = 9xQ matrix, input #1 at timestep ts.
% 
% and returns:
%   Y = 1xTS cell of 1 outputs over TS timesteps.
%   Each Y{1,ts} = 1xQ matrix, output #1 at timestep ts.
% 
% where Q is number of samples (or series) and TS is the number of timesteps.

%#ok<*RPMT0>

% ===== NEURAL NETWORK CONSTANTS =====

% Input 1
x1_step1.xoffset = [-3.6e-11;-4e-11;-4e-11;-4e-11;-4.00000033096148e-11;-4.00000033096148e-11;-4.00000033096148e-11;-4.00000033096148e-11;-5e-12];
x1_step1.gain = [1.999999999856;1.99999999984;1.99999999984;1.99999999984;1.99999999984;1.99999999984;1.99999999984;1.99999999984;1.99999999998];
x1_step1.ymin = -1;

% Layer 1
b1 = [3.7212066279519593337;-2.5815836536856680006;2.009690689340934977;-1.7570561639513191388;-2.4477842521412078725;2.1129395241870621014;2.0790318991547751537;2.8687443226169708765;-3.2100291772601270424;2.5503225904166977323;2.1053353568235877447;3.0973645103830804715;3.2831381291154664304;1.4204359606498435653;-1.5321876515941590391;-2.219866483196196949;1.5394865330086344724;-1.4700962021567398619;-1.7230179206289024663;-2.1363286471192668436;-3.7340207593050771528;0.046661482751248088696;1.7933836549318582509;2.0260745029493745228;0.78158683094159187021;2.6573511447063098423;1.6844136638477245071;-2.6664946514255682963;-1.5253072326591985419;1.2756847494205365567;1.540988536813034715;-0.79877645182042178451;-2.1926235937410303301;-2.3430340185773945727;1.3151667627903487201;-1.1959812898220001376;-3.4422574941208470278;-0.86296695048240390502;-1.0533695795350086488;1.3475856178177034739;-2.7324535205203601684;1.3679211623915294993;-0.88476661813914070365;1.3377560191401172141;-0.9124044367213101081;1.0386599377524479149;1.7763671673114900251;-1.7517521881491651126;-0.19653297616450929319;-1.7690637110245115426;-0.34865477404812850182;-1.718152938554505571;-0.067256712021230111165;2.4322943369828533555;-0.096097139008161830409;0.10896091764197037011;-0.1781581267612967201;0.70250695377997418589;0.11312058788262992215;0.25613300525361110127;-1.3670579388500290197;1.1925353843946371324;-0.089472149960644606348;-0.080862816851865637613;-0.84845982931085905943;-1.4876900329299191927;-0.011583722343840936048;-0.049395783743584671666;-0.020825210602739781945;0.13052792130503679258;-0.042850720201051850644;0.087918501437043078406;0.21011295364198295799;0.048452038910350651857;-0.0037182190962841811868;0.1516923600907145453;-0.0510680438797565181;-0.060936365601093389621;0.048962390653275122965;-0.0042211220626850965917;0.52014411775227287205;0.67838540948983794276;0.36375256053083571128;-0.0143842412385708808;0.067077340314250319397;0.11946696793557869121;0.073511680857080180518;-0.85830002445742425987;0.011787458149173845809;-0.9109618788470013051;-0.3605769998109610297;0.24670166669855306263;-0.010765087544769645633;0.7981355621155380442;1.3229984864027508618;0.066442425368457513901;0.88381265088994542811;0.26736060386218402085;1.4268638890565541466;-1.2959334852222355039;-1.1135477170436993699;-1.370237550496581358;-0.090318726288201756081;-1.2170201496085684134;-0.91176676301743064812;-1.5569561244200575967;-2.0370345940271192831;1.8838454672574531656;-2.1920524775542404861;1.6248123362111939194;-2.6160718695886115981;-1.103936142063658199;0.5562396629205491605;-1.9356779381294957343;-1.2012041266451429777;-1.7125878968004282221;0.3956467522038520368;1.051580692616662871;3.5451239997521533098;-1.1200209005687358221;0.34614014910784557388;2.7836716831822103657;2.3325548348664519871;-1.7772405993592059747;2.0874725118134276336;-1.9718490602727740679;-3.6913682870195119179;1.8700372815586550068;2.3300811843628315145;1.4399398539759675764;-4.9705099782663122454;4.3296604496694008901;-3.0909766851298599022;1.8029765102287065304;-1.9805458005783487252;1.7834516855473194763;2.1185933125770204377;-1.9718819882617157901;2.7753324075384417924;5.1617852415234768415;2.356598169347506655;2.1766278009018282802;1.093131948841824963;1.9603606607182029187;-2.5072434033948898247;-3.9927130294045380943;3.2910415046573970876;2.3765100029558947625;-2.3399830315692229377;1.7168922376536954744];
IW1_1 = [-1.1290714453538641671 1.1991507207884977149 0.21013978991213563829 -0.12700269126330504532 3.5166489820293240776 -1.7226741278818225034 -1.0707440012499347404 -2.3935033709918354106 -0.71975677376503099936;0.80211631563945651191 -0.71629173140906887696 0.26286980262265979835 2.299488605426232013 -1.4798561855240899288 0.20022423918486234595 0.43625538053462398214 -0.79262576230680648059 0.38449824677214544666;-1.5400732921122219921 0.70557504693381445371 -1.2901884691063028043 1.5705462229579083555 0.2043083930572610063 0.10951550984104437003 -0.39188076801413718186 -1.9641253402051968013 0.73336150255440413215;1.0520758474994706955 -1.2069541184658572064 1.4168229311839808382 -0.41558779913262205996 -1.030652166641395473 0.69192147568942363733 0.051738824986557907515 -0.95835995771944149091 0.20482033896159437814;0.98103457042898734031 0.15835960993480119319 -0.92717012204350979232 -0.16139057443948270909 -2.0864696683460808302 -0.58005023540461442266 1.1058165593898674484 0.59930748821466273135 1.0214712812055593005;-0.21759904045262751238 -0.8367825593242331772 -0.97471881951395777932 0.39865541971671730748 -1.3958400168191407165 -0.63500821379216987328 0.6987241252063716157 -1.0000535090476272426 0.32291499462680722798;-0.47933494129766035519 0.21025899596540059688 -0.49000192306963480382 0.082113507605271252032 1.666459406700520951 -1.4100957681665160504 -0.11609406494205661009 -0.48350250305182873589 -1.538130151651919908;-1.5298953187446526769 -0.98767503353783492326 0.54308657599616849687 -0.95635216293090608008 -1.1859851741209310738 -0.32544728957981022832 2.0481171744873365448 0.8293919175821324874 -0.083117978382363552625;0.32998737924863785764 -1.8368257697799954542 1.2141451860383045691 1.1921732078105047314 0.2540223870682370988 1.0345022869522961795 0.73131685129496848408 -1.7410358052789667305 -0.05944675406400269646;-2.4697190407820310831 -0.36861417871836910098 -1.2513632641879979257 -1.1564138903000726888 1.6300354648193928764 -0.53385857569704131542 0.017253669728095048785 -1.0000387213881014592 -0.42389598701242742207;-1.0025015775855956601 -1.2664892210927933824 -0.20148201792436426505 -0.50804063330788318265 -0.86596730015632095157 1.3374082601069647858 -0.65307144648228676598 0.37717773871222493032 1.5417165889922828104;-1.8798839328173821972 -1.600035543770130797 1.2285633812492011696 0.14721679520388802898 3.3879759640974387302 -1.0776359599713229986 -1.206411110393589059 -1.4406516595631349009 -0.86409790049899071196;0.35185150306485074578 0.63820674114018627332 0.14913610402290020107 1.3409664954286932836 -0.44371207751003383102 -1.737600501963119326 -0.20012513066004256057 1.5035542672886113014 -1.5462390668993737375;-0.82786224216202863868 -0.73082860079881473148 0.86579206002626940553 -0.24632677521308629642 0.55880573319829729417 -0.81556158083752317012 -1.0468750716971715331 1.2270128532352402306 -1.0434927381955667602;1.2522411907303245826 0.8989992391969097163 0.02504173218443661586 -0.11467115518633337612 0.56816861381839411926 -0.57407865214312447932 -1.2289431380523825332 -0.74537785029004066661 -1.0507218543007479372;0.41395882443270609619 2.02472134729280695 -2.5910334058916615341 0.66294870921835813427 -2.4061926819403085531 1.5439320335990334154 2.1267170109164270642 1.4853834972735273645 -2.0311059586740012328;-0.84188710789559673131 -1.2303137850489878069 -1.3768951637730915127 0.58827486163438869049 2.1038274113736448179 -1.0309784267997068596 0.24253202651205446605 0.62324248683772320856 0.45113393235014576099;0.83215746969225279361 0.24735468374155247795 0.70619601747408944359 0.73666400562149403353 1.3092969126023810134 -0.24129382165089144352 0.7212512506797089662 0.45429907352544035559 -0.64958124677944217851;-0.35477419556330386241 -0.2437724911128257288 1.2916933757302870855 -0.49923413711017022854 1.6076132159226423912 1.2577827172485638307 -0.33676316721565879853 0.65128324962945527421 -0.55354670631877678222;0.18910641155256441293 -0.95587329268792675663 -0.20973057460660518569 0.006186416002828282884 0.58389052112533113004 1.4723255738175020646 1.2221895928656247854 -0.27159280949275627082 -0.44172850387367573743;-0.66858503000768176872 3.9595901546972109841 0.85979097331808074234 0.10587757557411883735 -1.1264409080245312289 -0.075413832785246215362 0.37700443980403058886 -0.41953473520803591379 -0.22998652029998348234;-0.92986403798707617518 -1.1432939598099272072 -0.82363268458796656812 0.22535994566440747944 -0.44903171388790408258 -0.11845142320302183558 0.78358625805435233591 0.81727960262386589729 -1.6819430543821218826;-0.18152657019694393159 -0.020788068672209055604 -0.64283805790278081282 -1.8741909954665978422 1.1803537336420037995 -2.4892852930114726107 -0.33659712949936348991 0.86038542724073729939 0.55954584349496627738;-1.3613902462820228756 -0.11139339306502184235 0.95692632136669653065 0.44903132716949994974 1.0574905160404945992 -0.36922353224517395764 -0.9348714356516489854 -1.7278791582251760151 1.028374990980035264;-1.0767972043065019427 0.87808939222633330957 -0.21720572805084709112 -0.47281613514059678272 1.225311750222832341 0.35201840305302245504 -0.19117515896503844974 -1.1098378720603885306 -0.0051297599703508424407;-1.575980193008586161 -1.504435572576083846 -0.017564653602040000702 -0.24200382194798289448 0.54748559567149135408 -0.031472985106122119969 -1.4043585710789301402 -0.68905691050970852007 -0.35140423296397244046;-1.6755002548885795655 -1.982978049763904238 -0.24056221280428327636 -1.0669367399453759671 0.82770696115732433906 -2.6715629105310458868 1.8853493856649499172 0.96670327503881381404 0.47939767185370324443;1.4197965259452611786 -1.8801626500790440399 1.7311219381212952229 1.211543964470835455 0.16502087496833001135 0.52370745859331258032 0.26290041766102539844 0.1766328057900155013 -0.40377661612594051288;1.5566286122438430795 1.0047536106984236159 1.1623393619204156479 -0.11315545911608210217 -0.8458708405862305213 -1.7348075740076658313 -0.20019528033713976378 -0.041338727306970773911 -0.24438708891176300075;-1.2163404447733525693 0.39737176860491307817 -0.20375003516125819725 -0.39528461197115488668 0.29879593733941262057 -0.049143932030002730749 1.5120272379082650982 1.4593669221978786688 -0.47883571925742851594;-0.62966849702941318778 1.7374436219151587757 1.1992318623908648778 0.68982162954245873632 -2.2821647289500099909 -1.5140784208454549642 -0.25797664267563891194 0.13483505731331127397 1.8876940101225487822;1.0876414927950617262 0.13972846508297995238 -0.63177942602822267926 -0.91954024967823599912 1.2068960950159324241 0.14617618528240169939 -0.049965285017845653681 1.0770009049677529145 -0.80639989804989031796;0.0068589154361346641245 -1.836551100803578862 -0.90111522070089200565 -0.20351800753617427242 0.23066570600518465639 -0.1992288103975325686 -0.14359891474806152356 -1.9415086336902807052 -1.0048293619639525609;2.6548461974738284397 -0.010626363919368036343 1.0497455431183104757 0.93725598105142804428 -1.4518428174853390544 0.59052440742778744553 0.018476398686729841175 0.98981232470769664467 0.31536269626238611075;-1.1761857857843494024 -1.1252570046780929758 -0.87409755926326060393 0.23064519839598993101 0.4091546638802114888 0.35401141878404829288 -0.68114562656444577193 0.91699424612745672469 0.025039026412822427969;1.8381781683315190357 2.1039605377710026701 0.23110017832791948655 0.48359419349759230622 -2.5146505950170694454 -0.13733320558929701383 -0.42446443999832528249 0.49564279170463537705 0.73411272995341214642;0.18457449864364308678 3.0428542583576487779 1.2888617323464497399 2.8768907176796605363 2.0130418113938510771 -3.5628063466345509802 0.36673428187183615412 -1.9661684578214075891 -1.3535127811349194626;0.091803879581440039903 0.30686602446230720753 0.056715072802344008995 -0.87793064944558074636 1.0480212388434111404 0.56440704809183972479 -1.0525559633082020028 -0.48087615047290088732 -1.0387647673722339992;1.2738236763313743882 -0.98399107546365138788 0.70652694938686655401 -0.91549452367734018843 -1.2159298002805170036 0.89066321402364601045 -0.98467324691600577324 -0.49897942341610507233 -0.44707914821636046687;-1.9485420727630857751 -0.38921486995028620193 -1.844362417247996655 0.3403811902141849477 1.8095660080810800352 -2.696088570331200529 -0.71475413695185530116 1.0862943323100251458 -0.69366098428944322762;0.90390454936176523049 0.18201823429912114549 -0.18257197110523093464 0.574775087431720344 -3.5532374945696565405 2.1146005441192370355 0.82466390260176913873 2.5017204253153626503 0.74404865103671469218;-1.1535471164464810023 0.73894738160668038685 -0.6974316113502827541 -0.25117103488597286587 1.9208472798308433571 -1.1953542070740039716 0.44095265171332354015 0.87677863394186161816 -0.51791905905864588089;0.65505527919363026879 -0.71933623475324681706 0.98641415594787651422 -0.29642334401776893049 -2.1614911086236419102 -0.65480529676496845859 -0.50911996065610087836 0.80019731709727104363 0.18051643076855408698;-1.3473919098826119267 -0.99120410743234799167 -0.2171404843673029883 -0.25895219066350416703 -1.6907197822668751375 0.81878432911058185439 -0.49827776778164889482 0.95156989135666436574 0.70770521758092908016;0.60433058067822975623 -1.1175321149319439318 2.0247960378283620386 1.0189115090383291662 -0.62150600502538455583 0.63255452078340423938 -0.07099470541050562078 -1.1368397378887549198 -0.96385538038180995635;-1.3679807390684626256 -2.0615456365673470174 0.70183849926679708897 0.56887088752254133528 1.0017458966747789795 1.3870083254325011879 0.48701086296628376404 -2.4238124496556707754 -0.71699921238490116338;-1.2564267389355097126 -1.0935335711003391079 -1.0487245639447937418 -0.94091574327246019216 0.093782542510008948256 -1.2036590028269127384 0.35114652298144477527 1.8595721899605994754 -0.11978755772615427844;1.9979422821989465398 1.8618712761622400187 1.4148056724751258972 1.6714152668400363844 -0.46459527869815608891 -0.7105715056041362887 -2.158216190457397321 0.96813769599128196575 0.25292470184926879595;1.1901725117258254993 1.1739661132757044371 0.6425474443091797605 -0.3528960320605351586 -1.9952166168933649359 0.5068865861772723358 1.0991882167631144007 -0.10968960092620554103 0.64956618137881472208;0.98679935768031867838 0.72855828083215068425 0.6753649206756210388 0.0050946384552755458533 -2.4257754703098219906 0.67525689845842784553 -0.90813858982690010002 1.4838241311920821186 1.381412237030545942;0.28008253645670577736 -2.2641516117906492767 1.1891402184616619575 -1.2967551990543759732 0.090713903054833094908 2.077744649949932576 0.70205712750780135956 0.95892885520173487546 0.96345281781702973856;1.6303304940249374599 -1.3041161567546553091 -1.7398518275736942762 -2.000017708632228608 0.70747294695445295254 -1.9622083556905427493 -1.020702452010551653 0.59830654347982092922 0.50924720904644138475;1.3198867118616688376 -0.080337234853364386522 -0.46410661685892767858 0.49059675361822124851 1.5095314043411183214 -0.38019937323371000293 1.9339477394039428226 -2.8935837281509373398 -0.58675916843719166938;-1.8004065541644329596 1.5433355117162081971 -0.51832531780033330726 0.15436922537883229767 0.51944132276499355161 0.72017080935636745842 -1.8492223451540301671 -0.87875690082756208188 1.5897801724779025978;0.65518146908835095399 0.16218662253390850325 1.2168563636355995694 1.5844462953256610582 0.74383966111256560882 -0.77634442074688359003 0.78566329469839113475 0.14425788387781618427 -0.93640918786983762256;1.4420210557937622742 -0.5016817909316125812 -0.82833977583632067976 -0.37615545403296363203 1.7340967737409367366 0.57944728877493401065 1.1985273265566209755 0.31603412636851013762 0.30044125745257732607;-1.9712425677124147949 -1.2082974814686877618 -0.46525033563133866288 0.15511635522626551764 0.13056624111038006575 3.0933445814693421028 1.992719782414480223 0.27444058250285929823 0.62210884028725954575;0.60371023403626777881 2.8398505721955156211 -0.010539925081846266211 2.2818850010031122011 -1.8337627649887946468 -0.20300303511475287221 -0.34176138016393808883 -1.1527354652376082811 -0.64963577643631176262;-0.78606513609461403647 -0.63662105759683795814 0.80196274579947313121 1.0732411934420786892 0.34654496334686357706 1.6937658894989746639 0.18003142285700732272 -0.65259728795756832831 -0.28142487607772326275;0.60088581563910348216 1.1011144562096146782 1.0696551157406755106 0.78931513377971318501 0.37416297430677197822 0.91408655974819186252 0.44492494141945676533 0.05327238645472777423 0.70428792120248273623;0.0090497087596613651206 -1.579335176083238812 0.087493849684226285279 -0.56345940429114982351 0.48779880927275592883 0.6519886800308521968 -1.9249406962938102605 0.0089158019067623311277 1.0337622668006807292;-0.36264848498405821697 -0.99552334952229371012 -0.32047452065189485637 0.42950421115204018285 1.7003546270089278103 -0.052929750963299701527 -1.4632047004689241465 -2.1551156488876612727 -1.4704766678316421036;0.82764490487396968899 -0.060297776451950307885 -0.79350686473438114543 0.7537167447672717957 0.2771832189412323233 0.96180996299194831956 -0.35746871578736549857 1.5691132559068723396 -0.18999355227184480666;0.94388012899967232983 -0.66042793288859680256 1.358997229708352128 0.76354636041538503921 -1.1393135758321188966 0.027815662859513274469 1.5143407487703663961 -0.93869543935828525516 -0.90877201784678185437;1.4759828818148583718 0.8684004172575724434 -1.5243889495801130618 1.2095298093109969617 0.78105623590179074078 -0.028709261303516742797 -0.33392089259613366714 -0.34049492764217353935 -0.13358880399605166378;1.3091439509542965869 2.9477062870287613627 -0.49630864712204175726 3.700039154235335026 0.19994757878104107984 -2.4942127577272485972 -0.090091423608796475375 -1.2842627580728105396 -0.23826462535054268588;-1.1633875220755984792 -0.030819301693638785633 -2.2173543932428825265 -1.5911002450975963995 2.4156725914124601573 0.67359517556396464322 -0.89872648340176797266 -1.687057341015449019 0.91955212851558398857;0.31861600425474251308 0.68021479966419140517 0.153789833963526551 0.12741112867134829489 0.71498803237906949359 0.41253221785147242695 -0.22260709164624628564 -0.8905083306891802275 -0.25977413153764561393;-1.0068397558261712454 0.24349788963150129084 -1.4936851753655078223 -1.409093944462478154 2.094219726252713798 0.94018669081105077368 -0.52235030412352956297 -0.73245598335575723414 0.82831730367894973455;-0.35079833032112067714 -1.0144451936586307284 1.0926671043448923371 1.3441880157300727383 -1.0486352714423436971 0.88721298497801659444 -0.093283746959947469457 0.92287199973794886709 0.47071088529014748492;-0.35421411442817096749 0.35359777626716298871 1.8569886524841752173 0.42945128864986137351 -2.5008054744418086734 3.4863049429898982368 0.37373427024823774323 -1.380573761482530859 0.32286656645366396123;-1.0399673723137086156 -0.69628186724767437976 -1.8923471164788374654 -1.176434662246353291 -1.2172294008413655497 2.5074654380014904653 -1.8528266851746129085 2.7380851866311419762 0.6173396824263313043;-0.18095933982417727881 2.4815079433379008123 -1.9782685233698247274 -1.0923099584184163824 -0.22417261965442061844 1.621441742307735856 0.99062027368148242168 0.29258748197012263148 -1.9038574628151445634;-0.54248366433328609748 1.2049719131047806897 0.89902088321269157944 0.093496405394500783914 -2.3969698711193863083 0.90292798311409105949 2.0032075565938014527 -0.57976189249755927246 1.3226811300603238397;1.073989907891266915 1.0382528312399039727 -0.22907814087249991908 0.9677535655423976646 -0.8959596590330538568 0.55565263682162002734 2.4509757972887045163 -1.7849951508382619902 0.92479558287999763522;1.086108238090437661 0.30503575057018050831 1.6671008631434380831 0.82166255702876045408 0.71136187051386456925 -0.16458565204930755699 -0.042494445415699959312 -0.3078165019484423448 -0.77191160080525855758;-0.23121233036616550827 0.90340884091740081274 0.78541172348283294635 0.67700593899898364736 -1.601267477864309452 0.25154325485731177103 0.39109540250806990036 0.43470007261450688274 0.14391876366617220584;-0.25896857557918528947 -1.1802490426970249082 1.1642615548995842722 -0.48060588403477011443 -0.78936499582070707159 -0.085025315148886559946 -0.8699624351058752314 -0.93151512364091848539 -0.68564317526158269356;-0.66403590462367900749 -0.72469847105189644232 -0.71817131601669181862 -1.4490174250398963895 -0.24273037611679987302 -0.9114737474585257182 1.2022927881603422406 -0.29250221549982535763 -0.14208562556142828592;-0.93534860686849441436 -1.4688877087708847036 -1.0013583626366360235 -1.1375614222572734135 0.29688177371316670783 -1.0056337893995086485 0.70920503679774804517 0.53689844371824879676 0.55922638884593722786;1.3306063224331468042 -1.4041999498055881546 -0.83076253651462284022 -0.28115348517296756548 0.34830806696557797819 0.087702162829431939972 0.99119612805809453882 -1.033043657471498955 0.13382713218930161747;1.7198578707120100173 -1.5214238853171375698 1.3205410482804404992 1.0378050434097354504 -0.023013532418485450892 0.98044102029150959066 0.20827140266954960457 1.5356400617179977175 0.081625850520330917037;0.64544961183793070347 0.41155123607131688379 0.57867112186332447799 1.0820849567307884165 0.29714995243899328115 1.6441198464480577535 -0.93821587860719513063 1.1426967877879907753 0.32587262292159757671;-1.6410842470001612003 -0.62913948324248825106 -0.44072346024347824889 2.7825466003224934575 -0.82051652545242625969 -0.52984443544132642234 -1.9236251777052040257 4.8588019634253161172 -3.6793356961430481178;1.0708563836388196311 0.5797086217983049572 -0.41412506143825339455 -0.44713825631713194353 0.026578771199364473882 -0.2391210394550717655 -1.3329517123902385745 1.0581485410802824454 -0.97179926380884618098;0.48556845929848407861 -0.22424899159519248726 -1.1489954713526118191 -1.2451266840996868535 0.235635735272489516 0.12416669298104705821 -0.87240514544431180255 -1.6393222979854171761 1.2220424491291068669;-0.81185499597266364002 0.94485506099432503557 0.018784693939033744736 -0.99511543106991162677 1.364858101533825474 0.5527954220074289271 -0.70217726935668434152 0.5079297245750397094 0.082666859675210715985;-1.3707894487123741811 -0.54922296471962783748 -0.72326853711722316476 -0.21064022010080873937 0.93257586676598980269 0.43852946335728149041 0.2866598997801074189 1.5618622285228827007 -0.30950029691312919145;-0.53195833209307508138 -1.4680534519604466759 0.38037073876820454155 -1.3487714783792341677 -0.4170567240252894825 0.48369822234149267848 -0.85579422768411317346 -0.84308116337896832349 0.89223357258772706402;-0.11144022568264326523 -0.74703752819599722468 1.4966020027644206802 1.8939671995859308495 -0.35840130634176703417 1.4041727260384619935 0.165152953646662215 -1.3768764958229913198 0.17029703691349881711;-1.4332911608549634419 -1.9118582488124382657 -0.9293941759310583306 -0.64800465834801068699 1.3910091190197848565 1.7588734495718321149 -0.58644571145193469253 -0.70032351275440962723 0.74621249680079382305;0.10214996695703380813 -0.16099633442812025241 -0.054000474455244168448 1.1783794435139802737 -0.68380967629484601389 1.5475987458742386238 -0.075487954864400214072 -0.45056692464339903603 -0.20499852340261379147;-1.6072432268524012855 2.0405298880248179394 -0.13248614878369796566 -1.3112420105009887639 -3.4263132782160359291 0.57694390827310237935 4.483382449051142693 1.1169080148169583389 1.1626097756982975984;0.19191821227274963313 0.40646145121166182834 1.8035667426061194885 -0.4659106115031655948 -0.63428656728860255409 -0.058639255275176979665 -0.034518265800441420843 0.12232560311875570469 0.10220744972819595375;0.52587764980631324097 0.37492734523401710645 -0.71001674827955985059 0.013235939113492882144 2.0977301277956068581 0.54832170201341157156 -0.39146799279112387548 0.44337437138276092341 -0.89372956199813746725;-0.42490398113517452439 0.68539874071429152114 -0.72909795275348643351 -1.1486683433279114563 1.5304925193495428903 -0.7555691014104851666 -0.51151350245738713696 0.73159542841093749832 -0.60662526333826960467;-0.069019273217556117994 0.54569122804900116464 0.59953496791046223535 0.99970215733150480375 1.1580602633025744996 -0.48187037422577400081 0.10260824063574608411 -0.23625288538608865685 0.41198907733324180436;-1.1577845107161590654 0.43045978169596443852 -1.7098783531342967024 -1.1490004997718341606 -0.18223749418646198461 -1.0439813300045353017 -1.3039617596992694182 -1.7050923086797291628 1.4673269644336506268;0.89443897412091888377 0.82521253233761393542 0.97039073633689898468 0.16180002406150401084 -1.0376174583693673625 -0.1554470538233450605 0.28789007685727080466 -1.1427565033275699502 0.51694067631837892218;-0.77176525515990457293 -2.426310564051323837 -1.1796394698821415226 -0.38033161602838144733 0.41841817318148510907 0.088399877875713683828 -1.0319077579284028356 0.18868499207515154747 1.320894339036404741;-1.153752762260220166 0.1150205867417063571 1.4398087031932331747 -1.5509641523839732269 -1.109333480501103919 0.58912343905268838018 -1.1769365536293554531 0.60008102268324914341 1.0228807007752602765;-0.51298690362914989294 -0.30432331621955427403 1.213268353246982123 -0.91223564138035140303 0.32373993052037908225 -1.5312231990861040476 0.64709749520871906459 -1.4063745093506667683 -1.2728312101034482406;-0.42594422719419933188 0.066153581627470176008 0.27074601174611057086 -0.31602222439291788314 -0.15949920016231458608 -0.014920641417659129616 0.396244686912989863 -1.1849881516416027605 -0.40640660166808117992;-0.31166346109997794533 1.8150006502933018204 -0.4760044394384692068 0.52161891449082897765 -1.766939098512362083 -1.0424489285330162947 0.81546518257198041812 1.1857670017577053301 1.6186159737134293568;-0.58457937567857376493 0.82478300077833355264 1.350261590051266003 -0.97095845715408279908 -0.5385409482582830254 2.2714303610175718973 -0.17443279371593126137 -1.0708210801058348771 -0.53222163782757991868;-0.068472903919728975164 1.0176064705997587279 0.55150327519061481674 -1.3186864753582565601 2.0168697967746056499 -1.6691573351076365306 0.50721063847893277376 -0.608744494644837153 0.05498831259912836944;-0.98121635487223712868 2.2267926280422765117 0.86514232350196995647 -0.11429991905499375937 -0.70639037906968049629 -0.66543542768240637741 -1.6203648889077584272 0.56859484899375956068 1.7855297030650221224;-0.85973213566416128995 1.0103464085867717159 1.3996180246882454767 0.54522993435366429171 0.1730458468452144849 0.66172792412808889573 1.1572937848193876054 1.0910319822496912234 0.69383805395568909358;0.054715191294027173963 1.8252573305806878423 0.43948976422734070679 1.3391392038756742 -2.6632421278624867078 -0.11554430779958992093 1.3404059067164173502 2.2481551446065863864 -0.42781498464151052064;0.37834315431700676902 1.0311122397955179153 0.98025428775895295797 0.061599545365487153037 1.1350528394776380203 -2.8869974313780728536 -1.978773608311937382 -1.4695624380162881639 0.44320019059125909111;-2.9750123379246344868 -0.099388104431909554681 0.70987015435027045474 -0.53405133175471575235 1.6835709628633392931 -2.5384255249697060819 -2.5973033876267246356 -0.33116418270194231122 -1.6800209499462299689;-0.60544876634385758063 -0.16183143563522114916 -0.19149509510584986072 -0.29387634528590200755 -0.87540270309975354301 -1.5539219541061515262 -1.5256094951755458933 0.84666562461200456369 0.99322271688512986376;0.46822373127994598718 0.7710990087388909231 0.35470939441397192349 -0.23049667345371152583 1.178796482768160736 0.81971537305215214086 0.38392243154182636999 0.49050020432509733315 -0.73427199455666869454;-0.45102541694896797209 -0.52057848866087341744 0.33569209469372351951 0.71678719814220637208 1.5482395420839516476 0.88182811963656637655 0.81776670034007648002 0.64683670147955585339 0.28919471344171931992;-0.56165905456698306253 -0.41963816485356641994 -0.37075345749777538495 -2.3960472591723838143 0.96666870366030521744 -1.7825710462270518697 -1.2690131897075691558 1.1818089323831706405 -1.0365832230481926146;-1.3690236715577315252 0.95267711695924561788 0.45110477825907469018 0.96255247435134128065 1.4661353808207429061 -0.7081136181368046234 0.33263483059926185481 0.74326827726804667318 -1.4452208320795434382;0.9429300539391820557 0.61295478662278535253 0.79533853643278118462 -0.42892299857712923306 -1.4144139419213970221 0.35344859623470953336 -0.87528294699660791345 -0.30411034124799757317 0.08333775831901649167;1.5328123892879179646 0.40036096305011881213 -0.16944678772999621774 -1.3613207558894881988 -0.95021341763426203642 0.02594195915374372316 1.9281129867519686272 -1.3416330259249551471 0.096861923956914897094;1.5383358687381603058 0.95173831892094018503 1.6270159748106647335 0.75171339220916033597 -0.45152062490917993509 -1.7940216474043639838 0.063841747302384760365 -1.7305835977764083555 -1.4684765780493711507;0.027963018747090395699 0.67887858625334207563 0.80110654934597325116 0.77890059473560036007 1.0032956156709373907 -0.15924483681785567279 0.56443663831452794977 0.1265894896464944408 -0.26704319344894272836;-0.65577243955112773932 1.1073468127621559631 0.26788209131993867551 1.5323247485234554599 -0.8783565020687488234 1.0757717297718498717 -0.8006310485364263041 0.83348247931708696612 0.27421573791294551192;3.6223072433445127061 -1.2232060127579711395 0.21637266902604426755 -0.62336620442379342411 -2.3845171555333983804 0.23081297912594597732 -0.17695749203644617342 1.3048967465886984751 1.4745257384542802548;0.88108654891970883405 -0.9972426415838514524 0.30858762154605129391 2.0915273394377575933 0.98163684005132634258 -0.88279453959168552313 -0.46220760330783350334 0.95077559358052288196 -0.29331602828873881705;-0.86451887199719557042 -0.64871526854214900393 -0.077220637337069825135 -0.73479433786777526016 1.1719868472496313139 1.3809588051720662616 0.099218908261965485518 0.81387608424304902499 0.84845027180390020227;0.032709052949524843046 -2.0530856856599237759 0.59143162327072795748 -0.2831746644627304299 3.1585408867089030949 0.40671378222763032717 -1.5828202986643828964 -2.3346728576894992813 -0.11210010200814281289;-1.1395074094338353277 1.3017093618031732039 -1.1306378462532338247 1.171640660476414908 -2.232528303703961825 1.1683330621327283616 0.39093058289554277751 -0.68032350022685039725 1.5666282999948306642;-3.1582714461089245184 -1.7820967614422000835 -1.2959681045987421211 -1.7657797857761337035 2.4396006619050867315 -0.30901780002865669728 -1.1056942896885191274 -0.80548662916711699644 -0.8941912377746020768;1.1020963715976654917 1.2856142963371341992 -1.3619333337316756882 1.1324104999523159076 0.37010461250281356804 1.1957846053725549318 0.42873022410136429894 -0.59348077570564161665 -1.0942986852737464076;1.2735390982800058879 1.1962533547775728859 0.19115204633488999675 1.1803907133503921401 0.72627415365615910492 -0.23020880415992883705 0.17524568075275631651 -0.074704276846712852622 -1.2931325884215840727;-0.21166695632271229077 0.060963340088302321595 0.58264886604093424349 0.4454800285482493627 -0.42443720613580104839 -0.42829813772237107505 -1.156236204101799725 -1.460605621444325708 1.237612100781805724;-2.5212954274701346868 1.9951705297987705201 1.1579446323068922631 -0.79058784897421940929 0.72343416172622110327 0.68282864362058681706 0.97896161634563916287 -0.37097336439891032134 -0.90564202102073898537;-0.89938617656026009772 -2.1372638927684519672 -0.17210174423521140685 -0.5515891326911609438 1.2260418018176433286 -0.1199045644922560605 -0.15088295306604002088 -1.8779513317628782065 -1.7543219039332571541;-2.4169290355028771877 0.98755990410193428275 0.51093275537059557045 -0.55200643179645103586 -0.035971891641165695819 -1.5155163542267555687 0.18844053991005102477 -1.3921864976427373861 -1.1707225921366664068;0.13299368904896882726 0.20637538523204970731 -0.97758646749746713756 1.0265905155693721973 -0.41509113194697361271 -0.23548020022539750684 0.67214742511332514763 0.41902312530187596495 0.7364740883703105867;-2.0541341259839112077 -0.3416437419492195926 0.17104100543103858967 1.8985266542200474049 -0.6578133220228868927 0.065050385434519755745 -1.398171179743442627 -0.50489034079532457699 -0.3713184214125979099;0.99453844604084684633 0.15181081499061313544 1.1283629264053405272 -0.44910698557753675475 -0.6893304345549839951 -0.083253711102513422437 -0.46814934715882494665 -0.35108083013367691327 1.0472101234007991089;0.34907162482789116931 -0.46546506909525348084 0.91923233226270084639 -0.42386352656224907109 -1.5066288196190522619 0.35662974283928811081 0.5429196952127353093 0.78540460980169546357 0.44604667318752488914;-1.0458461459164383189 -1.02597721535511055 -1.1424586729989183453 -0.83937795230375178424 -0.5755898608416930573 1.2471664864359048863 -1.128186100702073702 1.7410900704413838636 1.3235306084323437137;0.58171499317701280685 0.29247376416897019613 2.6874237923332522371 0.24925324263303477723 0.60124269257968809832 -0.21134888928071240977 -1.4508915165304585582 2.1357510926410072649 0.86170239291916350677;2.9152641949327371407 -0.87441910616251861121 1.1562125904956634947 1.2477181625482358651 -4.5132900983823995844 1.1607107038594026704 0.38011344098933691482 2.240213068645709793 0.96022125997617813198;0.92805693123589472204 -1.3279477245527522289 0.21878800449063828815 -0.78127093791672697076 0.25352154819665800867 0.20468302604825097668 0.071698797092436608591 -1.5886356884591661398 0.07586653243201371688;0.84744804880235236055 -0.38774563442369763822 -0.90270005769229555437 1.0367140167376487359 0.59126239545801739794 1.071845178599327264 0.011261216072048290185 0.38783926907621402158 0.88202745956724215581;0.33175813687871474889 0.36700278496992166932 0.63049335701844566593 1.0434730751204499555 0.24809987686281445574 1.7620547635832624067 -0.2797047320473930454 1.5514933719093311204 -1.0457951032182115636;0.0094073697604272112777 1.8556133785591806262 -1.5594382081190567568 -0.54159288935939453591 -0.076042498419286480571 0.5544377676446613501 -1.4569267735844622091 0.56165213473954400669 -0.91906204436692184867;-0.61800738495136542383 0.85980785093272926733 1.5218322925060199236 -1.094272873189676476 -1.3609109009816431346 -0.20279072127342370746 1.5732566239694152355 0.14972302622187927401 0.73065915096760902792;-0.26286147150153521546 -2.06705398884775704 -0.85419272518266842198 -0.10318024778658531349 3.7403433277285738079 -0.7278777272540034593 -2.1624253777593924752 0.049942809584177530469 0.59753443253440818861;1.8559187243263179923 -1.5705126143736061195 2.132683026465140852 -0.75004265415580939624 -0.74037726070438414361 1.3776372884499092919 0.14320630659963787257 -0.55852341155306028941 -1.6130558472015130711;-0.33726333735162389305 0.18642816558193808785 -1.7000946464310526807 -0.68222295787030295955 1.4504828195981882555 0.95986634747105337162 -0.78333201222123249874 0.62533681188553780217 0.53422181898652509879;-0.75322949382114190442 0.88810701805495217975 0.97771332562452395454 -1.0326617526051651286 1.414314883395822342 0.11316342189053626988 -0.5782927364236590817 0.74327693990335574892 -0.70962280565587931846;1.7287985227054052384 1.1979565499125051087 -1.5609173769361175399 1.9650311691875750331 0.10072834356755805407 0.81630200686365284035 -0.078040343703175252266 1.8880288768828099588 0.053282683380254970695];

% Layer 2
b2 = -1.4870443548845628801;
LW2_1 = [-1.2478228229642320812 3.3580914352932182965 1.044113900740451184 2.3047850069095798808 -3.4589421666419060131 3.3047040783785988083 2.4929808809495410671 -1.7890684274318966462 -2.6270214930103694684 -4.982644443230609177 1.8481727983268811943 -2.1818740952734061445 -1.0609104159109281618 -3.1441838896299576511 2.5913673760818976 -0.21332929194689814745 2.2402727267208453199 3.7077006532305265551 0.88832793744327354091 -2.4598871375424282704 0.71117398034982670652 -3.114979759832781081 -1.6054643572837075105 2.3571968479011018438 3.506581538708550827 -2.6583706590738378495 -1.0854536539671639783 2.8005738568206459682 -3.2063308661841976033 -1.209067490643437992 -0.73463354676943604105 -1.8257102817675567863 2.1206667420861688989 -4.7862405784370327666 4.1240478207679442946 1.4016879523793150941 0.28775918840140685129 5.2111033838458595824 1.676545786241484981 0.8404356617570729604 -1.2716339666786959928 1.5990068852784184994 -1.2207899621518170097 -1.8836716410154665802 0.93770485504787126629 -1.0273429960584137266 1.4331384400261091283 -1.1322628479161960247 -4.2050083324582665512 2.2978348884982682243 0.88277641725997713085 -0.63502083365918193802 -2.3062260782215653343 -1.1822961316760498551 3.8449753094185790125 -0.75707926672116487854 0.81056095015893048217 -0.81467337953750385005 -2.4803681129125738636 2.610274214092372258 -1.0378839050985813053 -2.2774417100794197566 -3.3371381382492057988 3.3986585665655675292 2.0657228340858608817 -0.29941130071642785282 5.8774923128811140671 6.1760421080458911547 -6.6615279902490334152 -4.0163908701529011935 -0.79695909319574986807 -2.6863857328925089263 0.49429239877437586292 -3.5580413775859205394 -1.8695567901328900007 4.374430932148613671 4.8626820035571141077 2.0545698351556658245 3.738747371526053076 2.3400689026270464765 2.4566104957478578363 1.0431094088670129771 -1.8085862258883287357 0.30400510174856598677 -3.7235684902221755088 -2.3290467944026107538 3.0890982830185831354 -0.77472078372939068291 -2.0855851268276177635 0.94172290558746840627 1.7827449772088703739 4.7273679138171287306 -0.56369132963365908839 -0.82250482745296604747 -2.8519290800692798094 5.6120491460864139199 -2.6869790745727830661 1.5258510153985291868 -3.974669698480809199 -1.239625479861888202 1.3064494253958798264 -1.7682572195924879388 -4.3478444157991038566 -2.0869184809137624192 1.6864415459706181277 0.87637042412985022288 1.0665385172577630524 2.245524778692172152 1.0304023961735759851 -0.53918061100817937792 0.67758644381921284694 -1.5152058619592227995 -4.3585838878308384992 1.3391957794710409591 -0.86917975081707055107 -1.5355516069347163732 -3.525837712522587708 -1.0309911685454027364 -0.62936039231570684027 -4.3170042075195631526 -2.852302809316853871 -1.8529651928627515201 -1.3033500286272492463 2.4370358634029400946 -1.1660430215937303 1.0111638300476508689 -1.4538626494736808237 2.6938556240356477112 -2.7896763909935575754 -3.0709184391677575299 -3.0574791000536603036 3.2295107317271396496 -0.94635095938930902104 3.4839453984438404355 -1.9494059780567078999 3.0574218335888643239 3.9027891922817388171 1.7947435186116458272 0.22939485688709976285 1.1356958899381699446 -1.5409057536586112658 -1.0070823926629275391 -1.461742775531406302 -1.3176914930499403766 -2.4131437363324064194 -1.4655416160728251818 -0.36845880032595307307 1.6887373050603524671 3.8672816338128659375 -0.8623232509606784113];

% Output 1
y1_step1.ymin = -1;
y1_step1.gain = 9;
y1_step1.xoffset = -0.111111111111111;

% ===== SIMULATION ========

% Format Input Arguments
isCellX = iscell(X);
if ~isCellX
  X = {X};
end

% Dimensions
TS = size(X,2); % timesteps
if ~isempty(X)
  Q = size(X{1},2); % samples/series
else
  Q = 0;
end

% Allocate Outputs
Y = cell(1,TS);

% Time loop
for ts=1:TS

    % Input 1
    Xp1 = mapminmax_apply(X{1,ts},x1_step1);
    
    % Layer 1
    a1 = tansig_apply(repmat(b1,1,Q) + IW1_1*Xp1);
    
    % Layer 2
    a2 = repmat(b2,1,Q) + LW2_1*a1;
    
    % Output 1
    Y{1,ts} = mapminmax_reverse(a2,y1_step1);
end

% Final Delay States
Xf = cell(1,0);
Af = cell(2,0);

% Format Output Arguments
if ~isCellX
  Y = cell2mat(Y);
end
end

% ===== MODULE FUNCTIONS ========

% Map Minimum and Maximum Input Processing Function
function y = mapminmax_apply(x,settings)
  y = bsxfun(@minus,x,settings.xoffset);
  y = bsxfun(@times,y,settings.gain);
  y = bsxfun(@plus,y,settings.ymin);
end

% Sigmoid Symmetric Transfer Function
function a = tansig_apply(n,~)
  a = 2 ./ (1 + exp(-2*n)) - 1;
end

% Map Minimum and Maximum Output Reverse-Processing Function
function x = mapminmax_reverse(y,settings)
  x = bsxfun(@minus,y,settings.ymin);
  x = bsxfun(@rdivide,x,settings.gain);
  x = bsxfun(@plus,x,settings.xoffset);
end
