function [Y,Xf,Af] = NNCircle2(X,~,~)
%NNCIRCLE2 neural network simulation function.
%
% Auto-generated by MATLAB, 31-Mar-2023 04:39:00.
% 
% [Y] = NNCircle2(X,~,~) takes these arguments:
% 
%   X = 1xTS cell, 1 inputs over TS timesteps
%   Each X{1,ts} = 9xQ matrix, input #1 at timestep ts.
% 
% and returns:
%   Y = 1xTS cell of 1 outputs over TS timesteps.
%   Each Y{1,ts} = 1xQ matrix, output #1 at timestep ts.
% 
% where Q is number of samples (or series) and TS is the number of timesteps.

%#ok<*RPMT0>

% ===== NEURAL NETWORK CONSTANTS =====

% Input 1
x1_step1.xoffset = [-3.6e-11;-4e-11;-4e-11;-4e-11;-4e-11;-4e-11;-1.4e-11;-4e-11;-5e-12];
x1_step1.gain = [1.999999999872;1.99999999992;1.99999999992;1.999999999864;1.99999999984;1.99999999984;1.999999999892;1.99999999984;1.99999999999];
x1_step1.ymin = -1;

% Layer 1
b1 = [-4.8157706450221899885;-4.4101585449020923591;3.8256124073261639218;-3.59664892618984533;-3.3236214440173998952;3.9349742893306629554;2.6795820299256494224;-2.2436961285649612563;-2.1281151773845459196;-1.8634065779251898221;3.7897188939628367876;-1.437933513686828535;-2.5449869253033834404;2.2054899158141347826;-1.985998719714534344;2.671527076972024517;2.8862355307185052489;-3.562224375283994604;-1.9488407489777617165;-2.4049280504800267799;-4.2298575421978368283;1.5881517122749504445;-2.1338634107927458849;-2.7521840253150724465;-3.0268182881889775793;-1.4228951758951007278;-1.2965003340462115666;1.5606368620863702024;-3.9215253382103973934;1.5893073890966142869;-2.5615597088143458038;2.2225435159958397691;1.0422854130792928995;3.3165077586630573592;1.9825045379582484362;-1.9125908137781153506;-0.86983294883044914858;1.1711274442631280923;-1.4733602691391349815;1.3834380496882954237;2.0258701786356079211;0.73396083095659603313;-0.79474102021167214449;-1.4908197579342243877;1.3469009025988685213;-0.22406718758198218566;2.2059328370053856716;-0.79859114640930717322;-2.3940558581850388542;-0.6455680218806167936;0.75737318060144431797;-1.7815862433293725431;-0.66718570925458808851;1.2055243969279700877;0.40691036307655820137;1.5523923591951436229;-0.11973676912409202122;1.5003847217399655101;-0.14735111916147788924;0.10295776243646526105;-0.72530096722211345739;-0.36328507391122449866;0.30817869196397135179;0.15891727692895610269;-0.83368807574031711383;-0.89321602121204901614;-0.1587684127812660495;-0.074732057190534550983;0.060919890986546765266;-0.045546299128315134719;0.24193617331365135925;-0.061644931571111803714;0.917367645023225875;0.95402939209253945219;0.032767250961417977717;0.36254037941907257814;-0.093663607206615345779;0.033899841961740506679;-0.076290575475268671002;-0.14679984430604728352;-0.31670351114141970239;0.050379225287132352318;0.054376571165848958112;0.6359358087949219529;0.11437293367822350121;-1.0038703286282522065;-0.32453725679535183613;-0.023622884012841575269;-0.88435419272613147168;0.33872407700866552505;-0.7531312064616131341;0.15790370097233694113;-0.013328727720922074057;-0.025401062362615779711;-0.028806412343129802339;-0.37462062748770624809;1.9534049036549538947;-3.6411043680052994631;-1.4183920653461601358;-0.47269050941166518287;-0.75373966820777926756;0.96617089170703729373;-1.304368570555361595;0.77340619870732030261;-0.55430043587284172357;2.1888236764088850883;-2.4127576194048185876;1.1433122690680332934;4.4768162846700150226;1.2804444013251392587;-1.1172845499964239036;-1.8374555009497925973;-0.88339222541893513974;0.85020615100358631899;-1.950782166443302712;1.7932067191456877442;1.8380483395505291533;1.7690887018128831354;-1.9268767190669051637;-2.0005188483526921139;-2.0317663257819904565;0.93010385817737073477;-1.797856329175969492;2.2888181090936461359;1.4920882888470643479;2.4474064466962097697;-2.6167087479855060117;-1.6913459872476708235;-3.1993804259859328631;3.2929535996911676321;-3.3102076164247260515;2.3222122593476273167;-3.0303878675955240318;-3.3682276887955246991;-4.0182841421567507822;-3.4142789983621200101;3.259303072824823122;2.4705448409871242355;1.7128153415898410561;-3.2272702703240478961;1.5889994975246928277;3.2914137682808979335;-2.932426448982949907;3.2368993910727783536;-2.4484640109258717366;-3.1194332597927361128;-3.2167731747551973065;-2.6729603210498265042;-3.3185612391060077542;-2.1486766659791372014];
IW1_1 = [0.26532093009939872186 -0.67568742703509587777 -1.4218306867889611844 1.6936307101158567523 1.2379039546545436146 -0.059251875215043124656 2.1380217825456440117 0.93098518026023235894 -0.34790279663027862123;-0.36119325130102364341 -0.42228860106914223316 0.87625835597799572874 -1.7110617826382432671 1.5825981470764847181 -1.6653846723972378641 -1.4934552664605702521 -2.022007718714021518 0.30649312152003238552;0.15926841270017361163 1.0902146399257304221 -0.47143942607798772215 0.35956407436465986915 1.0014755898168221648 1.3806389942582484309 -0.34173107462656349131 1.418529986280101296 1.6995439971420596148;1.5122723464611960154 2.4946671277623533314 -0.71034468664453964681 0.22478062932115952521 -0.50120125076647870088 -1.8079856506172111708 -0.58604585612001980355 -2.7621405147857758244 0.41030221937067529181;0.50557089200510707538 -0.85427065884833286447 0.33458591209164562086 -0.27142877184888297704 0.61163747496063025633 -0.7932169120458012479 -1.4254714130358729918 0.27242070010056040896 -2.2157986068877315589;-1.3443686516006680964 -1.1368318052126515916 -1.3875088311959364873 1.0593082940287503746 2.8779315208635329881 -1.2543004561198571878 1.3880264958602321901 0.80962026932449826511 0.61859033062259327629;-0.10253180515043200383 -1.4763492909711757317 0.54451679364443938969 -1.8547319471111063383 1.9222855764695283565 0.64471649585708534769 0.74383747362007224257 0.47420873642642474843 -2.7428354082428625382;0.25517094552140867636 1.6439035683752232231 0.9666610786125870991 1.5808730296559552198 -0.64101118658181943655 -0.90072865832208115489 0.032261232019974661611 1.4225598348051882169 1.2409290239961519031;1.2565511034781160493 -2.2470199262304806354 2.2703804321553997525 -0.82650548971592596725 -0.63533282461725804069 -0.47393347777123195907 0.63203682843575059724 0.47331152637870016475 -0.842744033196405673;1.4687455896783572218 -0.88522288774843849168 -0.23917978285498708857 -1.2963764405390529877 1.2942866069565706066 1.3861549680890006275 -0.33957114867709020656 1.1653220037919826968 -1.5376345305091516646;-1.7671916050735652082 0.95576774280316256771 0.64338295316646321176 -2.4034208267137211479 1.0554310273502378603 1.4160632937224999495 -0.89896991940733761428 -2.5474290366596585855 0.69616101920935746783;0.80464484022215687631 -1.1838794661146241349 0.67331327052689760038 0.54178796500632353528 1.5880876018636194136 -0.81580830744023069556 -0.37293571795034252681 -0.92833145603421418635 -0.27461728547830438485;1.473155424677673242 -0.68102686333634210314 2.0831915522714421485 0.091383820782023200691 0.68297138717393734986 -0.93748847218963415884 -1.5096707620721245835 0.25929575524139542031 -1.0834940131563692844;-0.81160129184869411745 1.128538866675802721 0.39221506743696615827 -0.74402359909700133134 -1.2923258354066555764 0.68737819082403561755 2.564360017758024135 -1.3281208491185723108 0.70391146449854502531;1.0402906542442051929 -1.4823291430647875799 1.0788954865002970962 -0.2314944110198260685 -0.04017800929568154239 2.0462476924700165881 1.069593617390001361 -1.2007726531248625879 0.65958763268817099945;-0.20954688771539886627 -1.2153350507577653783 0.78549413284694913351 0.35428191743204434649 -2.288027319735947529 0.46267247090704255452 -0.10354303442848682149 1.7562149085424354489 -0.82858386446076026655;-0.24240631674968424192 1.5182929938151930038 -0.081083970857326645443 -0.86494458570582422041 0.47023697614584814009 -1.2081863948460163094 1.1111049745548633449 2.4346535537451003961 -0.8640494100617946982;0.47457731491471394358 1.5605013810334131819 0.96195922302765846101 -0.72538856465175816091 1.3770042027315920752 0.033942264436823681162 -0.70728403144917817436 -0.9929794053044908031 0.17905399449136763512;2.2033071636420795691 -1.4703318036521351164 -1.2204918273982385823 -2.1177427440752336629 0.95359703439743936926 -0.29078968923433073934 0.11699555915270894169 -1.73574477921589998 1.0069095811004611374;1.3157955961018259483 -1.3852944775689253198 -0.93706767282145098097 1.3820670639223073817 1.0245653871160049775 -2.0753750976993323718 1.4540109295702576819 1.1562087156012235134 0.1349646717616674596;-1.2450796843050757623 -1.3881519795969310405 -1.2811273378517142874 -1.4167052239263611124 1.2231903858842989585 -0.074199455923728341311 0.22739742133830453952 3.1936882287151893145 -0.21284070923545334031;-1.9107512100067614025 -2.2197340670963554565 -0.14554324519504341362 -0.16142898306805147923 1.4199032709705747823 -1.3287610633183353226 0.59296922423602826946 -1.4298980476638130099 -1.2093319948463479019;1.1131434404605400346 2.2525713308752166597 1.2074613559708073929 -0.095011591778026094346 -2.1633295852659939484 -1.1715836647873165699 -0.61703398994266644983 1.8047884324833300962 -0.31776267189565876592;0.49827986532656992624 -1.8052805467500738779 0.49601617340084086516 -0.14209927262870578057 -0.7212408667181210431 2.0424381634950177222 0.46698543797332126015 2.19701198381104712 -2.171633506343241482;1.214400054608523849 -1.2734974848706914763 -0.77836137538167782246 -0.83705825777643805274 -1.6499617946923206269 -0.11598542144608560422 0.3414811875800516372 0.91103237311054285907 -0.390701148927314168;0.22252276710839175022 -0.52161341894761670268 -0.86789504009213103153 0.30228044569241441231 0.70682877879339855998 -0.074130130206004674065 -0.74935033322193034255 1.511670597425157192 -0.51912024374512244496;0.6748338178708216395 1.1805262690861231256 -0.64906913921522502164 0.66059326305475929431 1.3053826932760648205 0.77126394727239921956 -0.69430256418609770375 -0.96307049206329442548 -0.30920458330293298932;-1.6692126901562396313 0.13749052474445497274 -1.0969924246636977294 0.74149959686160948902 3.1555478572605180076 -1.0334852475785423209 -0.48782574744737350336 -2.5454604219412120258 -1.3292390492569499116;0.90144056153184148883 0.97060121387891185041 2.7083225046445646989 -0.63249095557661993983 0.51361347099537468797 1.2805837657421610398 -0.098010842538895956433 2.4350112668653833836 2.2412375323152931017;-0.046641739724703819292 -1.2811744086471057447 -0.1813615559226436913 -0.68092923801256499683 3.7811737235385378675 -1.9687719917191282004 -0.86040615107884321766 -0.8303779891890459286 -1.6124056681036362804;0.31384216175579560115 -0.83714121526906970505 -0.25224759421104869794 1.6654176681393768611 1.3326091321664814693 0.75756419315996792463 -1.7721010366276210846 1.317311529805188286 0.97448731889882689305;-1.6132236867206859454 -2.3465610159845793348 -0.99158652820268777806 0.31487343643445064867 1.741913824855051196 -0.359026306471154244 -2.393744509342332627 -0.48295687010573229436 -1.0132996678423851211;-0.48067497063120423473 0.45824930067573466097 -1.3945820479945993942 0.18375499215594759406 2.1866167331746488856 0.61929646074062649763 -0.51762214027171293829 1.1941652818686154802 -0.47522648711015241796;-2.0887778982534492833 -0.64655251470911767608 2.8888539310298835261 2.2327521330525952337 -0.77486069554998027176 -1.6437311464669113192 -0.39540867715437744145 1.11739977189935491 -0.77067664427945281602;-1.2730983500464196911 0.35519670700276662068 -1.165024138103998963 0.0085219286548071961074 -1.9657087503665224837 2.3833368914625649992 0.8359886633101843989 -0.88258217334739175186 0.55047804300442992886;1.1354667485149223527 -2.4665631457544159311 -1.1878873450240121645 1.1291888372929292927 0.8944728742671923527 -0.50932376250288702302 0.73058994346563499445 0.018350171776455245776 0.8507843634877575445;1.2509531387614809539 -0.1497052247767185762 -0.14449273854135472051 -1.2349979773392940618 1.5816710691146298462 0.26637237073512853858 1.2612394295170814562 0.66969624590550125287 -0.15930015010991796509;-1.0446463101011065344 1.4778485197763666648 -1.2865165686783570642 -1.7592059767872358922 1.5121438407287755012 0.26871028911602368172 -0.17588927768530160378 -1.5900138629471793905 0.72680799388616001977;0.73356949912645885714 0.28749776085337558351 -0.38867864000844704053 0.89968557696583639771 0.88331824477965348308 -0.39291536485751615837 -2.0114439028882684646 0.57347401990671265093 0.1397611375175029369;-2.4032360568694604019 -1.5284561670632954566 -1.498529034482423361 0.036460572812241028029 1.3702397017232488263 0.11243533381101847302 0.72062708300245414961 0.33497881192339445944 -1.3761629412385767424;0.16150254059556368169 0.30912274574232384561 0.92602696589369437596 0.89132225723287161756 0.37926501847344451512 0.88460297481555694166 -0.22613338636578775298 -1.4414932370061699363 -1.2843188527186493175;-1.3790827546002859538 0.90865913934537190233 0.74962230669349738665 1.4182604077468010662 1.148401332123009766 -0.90814658126967851004 -0.34669942202261055941 0.34907310357906956577 -1.1159899781102666783;1.1736985019961945209 -0.18675099463773026098 -0.55925836628624447933 2.2918756979867427326 -2.3953279822587481007 -0.3045693299765864781 0.3593224490981641317 0.42888011102391554452 1.3743360430353468438;0.557929951391578971 1.2212542979090337258 1.2351981206393192192 -1.4039619069415094632 0.62009109791275396351 0.85099210996232033111 -0.91424639219893144571 0.2334845249436909298 1.4995900391773298033;-0.37531110719638427486 -1.4099917999169033767 -1.6093469826892725649 1.5161551740068899274 -1.172587200934815943 2.7529774802168662795 0.23668466266578405688 2.0729185203797060311 -0.26671656288339440355;1.2562923102605838555 -0.77740318628410931545 -0.042054819623875971946 -0.52192177218049939924 -2.4830715776749485713 -0.68406812313491183186 -0.047353786835894369489 -0.60653881011388199873 1.5932530915879332678;0.037095548926489689545 -0.17331795045659112442 -0.24795410073239690374 2.8704229733143171721 0.89800173390369464332 -0.088753778176993633475 -2.9380500692174478239 -2.0146635224886555449 -1.2689762342238348758;0.16826505005168462814 0.61977262284190348662 1.4635864997510201757 1.0352446577541085659 -0.1670067006806385812 -1.9686533361678275611 -0.46737280159444855032 -1.8632566946493100968 -0.70476841263244627278;0.011703501945071964965 1.5294821873125696854 -0.10638469981086372262 0.01493752313837346142 -2.8974058818597181464 0.053646012788959029916 -0.22056266337518504184 -0.20110977004463079232 1.6957409561100504902;1.9150879602681192271 1.4002767143161487517 1.1776960881044569174 -1.5102053381679299005 -1.7969053349134544995 1.5587066063281826978 -0.32763332262775229919 -0.49256252230425168204 1.6260705562266140056;-1.5414441329639081424 1.3386959783089096288 -1.2378884361679136639 1.0261987536370780205 -2.3520936920785051605 0.37724800547646120119 -1.6272114191527833338 2.2648305024801418384 -1.0267568410928262779;0.22842461782152362337 -0.96516643130457069333 0.38626575517912353774 0.1674900935968980098 -1.2412088476062663744 -1.1324341256193373173 1.2056384661698131833 1.1385858198795826279 -0.34591052776758141052;1.3205756347688766272 1.1028182461579554285 0.5935415206570787694 -1.1358980566735967788 -0.91508625360783923952 0.0076394681771492431444 1.5439160891891050564 -1.548162887133973209 0.30710961247258045104;-0.56758138075798347799 0.1937153093521816194 -0.27116046687656936154 -1.5048120371599622569 0.65035068666608575327 -0.79228758337341820273 1.0743295184593331104 1.8814746802356390187 1.3175212415515329401;-1.3073517376600090056 -1.7032764670264581852 0.94981854147928346244 -1.3721910110161186225 1.4546107540236681288 -2.7731462535984539031 0.93933895331683070484 0.93544567964950209316 0.82999359009257145381;-0.049036949138517221813 0.85510805838749226471 1.4366050654009194787 -2.1746915241064699309 0.031750515273271148753 -0.16812312211918875593 -2.0374533997985624367 1.8065082216934031933 -0.43525488007389345757;0.97038897327383932812 1.338992698116126423 0.87651078752658440063 2.205327716161310736 0.34370059982311118585 -0.29596705220923530399 0.42487494491019384135 -1.4665348415675907301 -1.3536005304770275526;-2.8548602268705964846 -0.67469094711726507185 -1.5972022100426397362 1.0595364670035054555 1.8355576741452712675 -0.023776587746584032512 0.96134518390461354276 -1.1587138860765744397 -0.76392891380111216382;1.2840209610241186677 -0.87162222489035923179 3.0545482759269200201 -0.95494460788107415894 2.5958402476820237048 -0.30536649846818153531 0.11325144889449878516 0.61164095056396994288 -0.84410297027947223114;-2.2203362877136743059 -0.81702854662972157485 -0.32141133734698940083 -0.16668527415750392096 1.7329449369572131889 0.16867875053438163846 -1.5058546194812325592 1.0381614594505239602 -0.13108414611032956354;0.90168799318960457523 0.12650585915179668461 -1.1821929905949122297 0.15134120266404901822 -1.6116715477698049241 1.5217697175384303776 0.68379957888350362261 -0.44800679646967594971 0.16044074935706964524;-0.61135913024977628361 -1.6005716380526784359 0.3969997399998697607 0.63944937970968340757 -0.78226408565434080167 -0.76635073426605337943 0.69878513779675566209 -1.5911360513196786126 1.0539715968778355926;-0.43243539856582557945 0.40389956645718705364 1.2507370751671946785 -0.12695614851797240585 1.4883553645321923042 1.4010712416065154162 -1.6411187172482450958 -0.52498599390976141699 -0.7875435181918838401;-0.60690035425087462961 -0.39152247370913556557 -0.67529746768050624706 0.86042715646797207629 1.0012751396584096408 0.74007959608258722106 -0.27667225068788153797 -1.2636809642647026664 -0.57419141207120316661;2.1623466058355171882 1.5659875425566192053 -0.48546376807107960438 -0.47228923114011212014 -2.4724627284571711883 1.4741748151970728298 -0.28578442093392214529 0.10378233313311813202 1.3174529897276359147;1.7309510854416310099 -0.52011124497060479133 -1.2497611472336134231 1.6463311326553919933 -1.7853668204849915124 -1.0693000392528249076 1.2030627337165595847 -2.2346651561443358069 -0.13602796916367976277;1.4428720364215243954 -1.3666539804521018464 0.48188366794824433192 -1.4371362951042638834 -0.027299523037069416131 0.21515478469832538533 0.22902509387626029946 -0.80763621215624292748 1.454663410217031938;-1.0332726908681064693 -0.91328173611081442385 0.39132820523324524098 -1.0946549750419656277 0.8462123389243539906 -2.0282464917783551428 -0.64824459934394917937 -0.25726333949152346836 2.4770041629623347212;-2.1961603666795568301 -1.4089289692304616253 -0.38094359840601371703 0.24121082917190633799 1.5817935343279296845 -0.010357471125573313939 -1.453255863398301706 -0.25139231817707474725 0.20944400503470259056;-0.1869192328668730918 0.95474734429887020415 0.80443051493686013043 -2.7522526167091414528 -0.26381969589290593659 0.56435851899639455365 -0.97020864657810423903 0.83187710102908607457 -1.2028087276089614033;1.3862148141688124259 -1.0201076214615050208 0.26530279458496031086 1.6039134710887157365 2.5449025597616694583 -0.3247219445656479575 -3.8460771482526920906 -1.700120652557044032 -0.12775523014612966133;-1.2847032373654456716 1.077389036005305778 -1.5622208078671913078 -0.15085784487571729517 -1.0513531374040678834 0.9896038243172597948 2.1193126649718565524 -1.5021134332945234036 -1.2825714350216854687;1.353023958849306263 1.5754370887164366177 -1.4440419697360125095 1.0142844201650453861 -1.7396531861265771557 -1.8889505292170714057 0.17660134522789411315 -2.5799747061713635965 -0.046117077756846820702;0.073265753159889049351 -2.2006071000908073998 -1.6104982934383715865 1.1500782950120367332 0.07260518607310695316 -0.38290130984836429073 1.0738527901383945196 -0.094928344836737302281 1.8345223900552511953;3.550046328345398905 2.0517145019754408075 -1.5794478120994597248 -2.5112940583769818303 -1.4638584998319841279 2.6252173087003680685 -0.30122529157805782996 0.023931684425803782801 -0.7760546424086218753;-0.23792279776783720191 1.5927846758247803383 -1.3001924293293585233 0.62073285030314639954 0.65414897147892048235 -1.7449906992098858094 0.78951491085724756491 0.094879125912050180092 -0.36006966516318067439;-0.53243892242393697778 -0.47283579720764695731 1.0084161506910356287 0.40277274250913036591 -0.26329511766334529055 -0.85306260748746687295 1.2845133106865771477 -1.6273340272397096573 2.2076221631871648654;0.16869249570013522543 -1.1158244512847514951 0.80860481147232987631 1.4688543681029273547 -2.2690013918799070147 0.59081293304281368162 0.55590153346596737904 -1.1868597223959376219 0.73869956550090676295;-0.85838761591812462459 0.70311457432949875379 -1.1167324933395734732 -1.8248836920843383158 3.0228262676617156934 -1.2771269928788766546 -0.88031054955147436392 0.72491990713338483321 -1.0829421485148718052;0.36368995412547472368 -0.077120963271720827104 0.013159752510782721929 -1.6422880258889001048 0.13496912165048774446 0.29145714939365591212 -1.2329499667993792933 1.0829795382370082102 0.87604276010985560053;-0.71389240519449237432 1.1248877444104610213 -1.3617170396884745731 -0.65196885505064849919 0.61976407171480385472 -0.50799327028013219198 -0.078295798697958440826 -0.17420778616771293024 1.1260578875081235228;0.95926396184627849006 -0.10773390003454727526 -0.38328349286434443277 -0.50483696419858781201 -1.3151906120050256277 -1.0818388445122693042 0.087049381468817868535 -0.2866657639180756334 -0.42203660681009308453;0.024417017531413103687 0.25472065139961691527 0.25839905376264715731 0.54563058416969545394 1.5312134618427661881 0.55481705377317247496 -1.4881264528491562338 -1.6193520698567791527 1.2650990619970619022;0.54406993695913485887 -0.82884515396564595324 0.13617567215691445126 -0.22644967310837785246 2.0892363839647187795 -2.3014172207472096687 -0.077197475689112116104 -0.86344374684240654538 -0.10511039198744762113;1.2821338064770855247 -2.0389394549547916746 0.27108860716247568101 -0.12281288553030829391 1.8381677546162320525 -0.7162775739403713926 -0.28954529624352698391 0.31167203675947330321 -0.97947958374701260542;-0.87034418738262220305 0.65017804899841968869 1.1592482345788963638 -1.2332813207488522167 -0.64944175122041303272 -0.37955328866583526448 1.0677902397648493249 2.3928330276363518614 0.13400464397650885262;0.56070007291588830345 0.11590394388008494475 1.1645901019852848979 -0.67032641318507368844 -0.70636649808076257262 -0.016544773391039400978 0.91119193493027306197 1.9330092121915896097 0.54498288730705757299;1.7713232392955833294 -1.4064220408422891673 -0.55850256285453736549 1.2721849238045437325 -0.52163084732810949262 -1.228543205122638593 0.070256479134420915522 -1.2762570711317597905 0.58311862987509210932;0.30286146407876896047 0.43746763043529407478 1.554758251845861361 0.25880728536292191277 -2.5593264072104120466 -1.1203995121663750112 -0.72035763174476008519 -0.12501297023714427747 0.57319929671308245123;-0.088793657286608027035 0.57706589930302687463 0.85690867639917189802 0.838072714978695954 -1.5345136889663992807 -1.0676212867927965533 0.58681151595387825992 -1.0040797108460943754 1.8348867365444145872;-0.65778108163933501906 0.76399631663632949774 -0.19995402199735251569 -0.60410978613948040916 -1.1192593302882736239 -1.2966028226058137207 -0.13154887550557639586 0.52337689235508999541 0.11849816002316669594;0.30697548068777918973 -1.4670952172307460959 -0.065791020579702694238 -2.32761238608368215 -0.93575351754366742352 1.6991615146644136747 0.90638009438865019263 0.53674993173855589657 0.87241740622805885597;-0.57041252442040357717 0.70797527637076507201 -0.0016077840158691990898 0.23357874409515186342 2.1599661708652488912 -0.68957227781948560175 -0.84781373827460115855 0.64828904257450470361 -0.20520625188328667221;0.57158465962948268313 -1.6372759321576926261 -0.33555611849159250326 -0.37109554163056679421 -0.061543808619663929738 -1.1983941653937764116 0.67632881448038728589 0.15276951315276010579 1.2414926605752636402;4.3098350747208824529 0.46431812073249506545 1.5284170570154629321 -1.911737943021698527 -2.3102057853251309893 3.9835514967804979136 0.20396370480153247495 -1.2014424783932189378 2.2585894311274161694;-2.6099838941302566653 0.3615042665802115085 -1.1271620069093912786 0.72261250109391717 -1.2455581394090420311 0.98861825386369250879 2.9521720173358065864 1.5115019835384506663 0.13334885914527513928;-1.2634051402219297344 -0.82886376307114106865 -0.98865312070310285009 0.62807908996790151601 -0.078376430054473811282 1.0582470641339913886 2.4691417279482639202 -1.8999330222273180802 1.7857974851302089725;-0.84648138807556583263 -0.41193377962394889247 -1.2356650641351585307 -2.1400549324705044896 4.0642360236085934844 -0.15450189992102134062 -1.0952027819298992828 -2.3068481927464827841 -1.2147248460153297067;-0.4660194598820392442 -1.1938313345984790104 -0.29029874331887739469 -2.3319732845370992891 -0.60708335440427352303 -1.7967801069650572998 1.239160687011248152 1.9021349833522935846 0.87386815082554447631;-0.69645581713043414052 -1.8195195331509130821 -0.12620863503955906393 -1.3568570127998114128 3.4300047141280263219 -1.7850113566401257792 1.2776131510554415982 -0.13206073256605080357 0.16130629263701176668;-0.95714090173661614536 0.17932904094960436248 -1.9831219941998097234 0.81493379045296687746 1.4928449617071684052 -2.7131631848793142936 -1.1148508318185943455 0.73217007510827514238 -2.0751247070504863501;0.041538879129609872221 -0.27816688933195921063 -0.088271831638637901496 0.19870792496485500944 1.0098871389963510747 1.110311122995844002 -1.2996784817427793346 0.27162719762676462709 0.53710890291791357765;-0.33464495055593163064 0.045267569516784594841 -0.033543668254412788154 -0.57111325760371656202 -0.99105568213388417487 -1.0332348598164406983 1.9406238030120741556 -0.23781121282128625527 1.7829051566105043047;-0.61901845796389465271 -1.608347944302388699 1.0952902680938187974 -0.094160622506972893597 0.29289704588887338632 -2.5194627785547170085 0.074763456924224161448 1.6197594404187913852 1.4471867137623244393;-0.54673029256568850265 1.7474797668232138204 1.5650432109714418338 0.53965696576923882777 -3.7926761425743258371 1.0699543504426920482 1.6180570100998064031 -0.47406654940201259363 1.7035686918364925102;1.1113724193381480099 0.44382138646473401344 1.0319459983693306526 -1.3868083358592981913 -2.002274098174210426 0.81207182530469690374 -1.1441814545905013567 2.3837465984689676368 0.95865779874587708775;-1.0053573370559807376 0.62715081532162120226 0.31137134787691489457 -1.2691654832679923892 2.2368055526818477752 0.87064509332138240172 -0.62904376794333949352 -1.1331231999862954041 -0.98188526007881493651;2.0915307947724608439 -1.8431916473416041224 -1.6589433988590793767 0.14306303147711665891 0.093202587598854413908 -2.342682261241304964 -1.9768114396546943023 1.9342394788340089296 1.3429383339159697286;0.08148653921876095052 0.46831467696251666277 -1.6365372938402471537 0.94665805972940297863 0.24797525221178981503 0.3271394193077195589 -2.2461128837391384216 0.77392105567380942155 3.0602911800726282365;0.69883547296922365888 2.3459048759272587148 -0.30649394333121310341 0.329586497557510405 -2.7762303199877149673 -0.47506393079063286011 -0.20165902676371647018 1.1144878964101270213 1.2796364803865762916;-0.86382239683010275666 -1.6503309010448641292 -0.31949033628803852336 0.61389171293301192378 1.8441147877346102391 0.86321321787509508461 -0.91945860537796375578 0.27713240613886114261 0.00024414032470864105526;-2.367172686584483543 1.8342550552970235955 -0.92002700169075990466 -0.36998457771008319561 1.0992494170903295281 0.72903307961400809489 1.2408769831137060891 -1.5306931583214553605 -0.82418780684597603425;-0.79631220970110949686 1.3713611313648705892 -0.57426431779524855781 0.72258778081546781724 1.0827770888114045533 0.50693760420041289461 0.32677088247067925808 -0.77132305634305309283 -1.2127807521838771532;0.92502571078639472812 0.98065967302153056462 1.0529955034400588776 -1.2499509283522376446 0.71351511641065734626 -0.5905778575413453968 1.1442167356038093207 1.0944366829931344576 1.4398415519181080313;-0.61648310035453102174 -2.1648619772797377259 1.351447946116393295 2.0015957937760564533 -0.637447851142427524 0.26473698882800228427 0.073794519707367542405 0.53618078264301549662 -0.38757942647396970148;2.0224266813803124521 -1.6066312834428069234 1.0674489864937943828 -0.90830369559800872015 -0.91660036982643844361 0.39341257816226760102 0.021704110694378060675 0.50638197063652012897 0.82135948846141071389;-0.89309375700773918627 0.63138172802134662209 0.65304523007444603699 1.4873076047247468789 -0.43452486394068307041 -0.23259469705117066796 -1.4704960575598917671 2.1099846276611939899 0.62566042953395162307;1.2820261615548764755 1.5783860723998679454 -0.14000022268449871521 1.3178489658505037063 0.95569112338862216571 -0.083489859483767206449 1.1584957865558618284 -0.64215075107055463732 0.54401320401676289684;-1.8551843612066842848 -2.0725357076768169406 -1.5250831218998548433 -0.47118417551612173932 3.5144209810753137546 -0.88986028483649282084 -1.3194169502832038265 -0.42887335310357949103 -1.0124844257907574807;-0.88380416611403600502 1.1392181318657623734 1.1520663570581053392 -1.1679077369196264602 -2.2648037640747462618 -0.21681666647467992548 2.4279391704948314334 0.65378442650750623333 1.5857693521316560403;-0.287693414218723853 -0.27011677398602124134 2.2742999639546557233 1.1989105910701558511 -1.7892803524592268971 -1.0229928493006956725 -0.96872362313551030333 0.98643970918050305485 -0.091412448504688048612;0.36175279044838215547 1.0071302894203764122 0.11734702776916146327 1.8193366654356801781 0.58967236433030600917 -2.283379548123090963 0.036315415830206095038 -0.57499814684685279786 -1.1308259593965301892;-1.0181862587817669397 0.95069475489644106325 -1.1244904804687272382 0.51377785362556827042 -3.1411046744723365443 1.0099288394154291026 -1.0150258423520153173 2.350003728112847412 0.80726268729775418898;-0.0021516823210513237943 1.5820352610653805048 -1.4658614020267055622 1.9208422875471471425 -0.13702492267713095586 0.96334449328065541174 -1.4973365759857593105 -1.5355918740716869575 2.4030258689055434829;0.72851301482420449673 0.77287268364649741592 -0.71555033067575735117 0.45804758384022203899 -1.2526102762473607655 1.5841175849546833554 -0.6300670669731207596 1.2811795302440620592 0.85921359358267890283;1.4450024466736528517 1.5159483092786611991 -0.30452086781776371849 1.3098945548579856712 -2.695775764757813775 0.86328009130417870942 -0.84853041655805061527 0.91945437665157880858 -0.79229962302770085003;-0.76378200204062729473 0.88107794067837763574 1.2774168143721595925 -0.30108475668575035433 -2.1638303581366242767 -0.93076914657805054354 1.6701879482875141569 1.9649263065628821412 0.34865944217471578348;-0.73958080164382677957 -0.40944959030234223674 0.28148182645116248679 -0.51324994520328592884 1.0286777649396572354 1.1377854262646496242 -0.91510362154103119803 -1.5420603931879941495 1.123005119890305048;-0.74830010230592025611 0.49053311396906301711 0.22192737793313369044 0.81299894568763897418 0.88645563138401606285 -2.0818771852123889587 0.49236804912004472623 -1.0937777922458551405 -1.1221923803034767886;1.5880015844806063541 -2.0489255314676411146 1.7656400546377939431 1.2691752397863798052 1.2039596735488873325 -1.8669194512216173987 -0.10076778099381220044 0.66158122196974922247 -0.20830134920299156476;-1.0128996754640258171 -1.138126263570893526 -0.16449226771100924904 0.39382012706397562241 2.8572446818773364896 -1.3842672439682059959 1.1380647109694252972 -0.45793361363879436787 -0.97087535004609104572;0.76660703681749986504 1.3416603863543452579 1.0748447700311616337 1.7939486680335230417 -1.7588330128572877697 0.11234099802478814123 -0.94491684204540371539 -1.3251071509690370842 0.47628684397604453826;-1.9435254374832786617 -1.0440107459078882268 1.0773442235735561923 0.61415652792714880981 2.3710383352853159344 -2.4771430756216323843 1.0728235287755081284 1.0668985206120562559 0.10954042963312926595;-0.90819694770675496454 -0.6025551399660469265 0.68904463580431862813 -0.54286809125105417451 1.7946735904910768866 -0.20509008492104779942 1.1341473902541747698 0.96279369779966939014 1.3436050443610008109;-1.7551189111310947499 -1.053208647197755754 -1.6394549139203558052 -1.7225110213284908767 1.767556930778986457 -0.37729607894651628897 1.1593569820555691408 0.67985533066808678804 0.28707731122369956056;-2.3589098644610890787 1.2854994437341111801 0.80286791585523697989 0.91857800122972499413 -0.49099837875277468902 -2.0708591313206001772 0.77432852696399034897 0.083974746425759527746 -0.22815131343483280313;1.7396185459606063883 0.75404828187086259117 -1.6642151404251011027 0.54708179581582405682 1.8450564544053260629 -2.1020189821407258002 -0.72830949743461936841 -1.8112516056241469986 -0.061935717038771535836;-1.7043691451633289358 1.2626363234610380459 0.11674001861704919047 1.7639319555731438616 -0.44295274455479138886 -0.10819054353879549446 1.2499009107459921886 -1.137877067816731369 -0.35929218512692556731;1.938531824995020969 2.744582245215282601 0.76662697274279656412 0.2473190253333761579 -2.6260961454381241964 0.43065745090241741577 0.04640785157208771744 0.022128244571461622853 1.9460799788485718675;-1.2344811207675432385 0.75449807544144809057 1.1601383482183096341 0.1132039875145404717 -2.8532743682579058131 0.056564447815670999831 2.4479096045038066798 -0.086465081730263501636 1.9166923065476335619;0.3067697102454011171 -0.75183458453376161845 -1.7458949677646198317 -0.31366110319903045545 2.1059590798657628063 0.63010197917964272385 -0.39897200836575152927 0.93170514472295851149 0.89309131559296373037;1.9776482099865158037 -1.3555378320836171113 -0.35664579858012956937 -1.0833294130426880386 -2.2645353388669136052 -0.35605887399745650423 -1.0085266705751525507 1.0168540709337767769 0.41950070050815840839;0.1681855680242255735 3.601123659254168885 0.64513266654742951189 -0.78703051717019556488 -2.0397623875921944148 -1.329902077896461865 -0.66759976798969800083 -0.11506231047912411636 0.8511275301434318985;0.75256414482382061326 -1.0562046392328192645 1.0410085291152217923 -1.4133858236804357489 -0.94538319500669321105 -0.27331580760408163977 -0.29997462098126181917 -0.74197069460421938292 0.9199473532807866949;0.30093331967672953819 0.097336132347290438283 -0.76773284900922433849 0.23804619014378472497 -2.7663644365590949192 1.2647099569193709367 2.1392709955715805137 -0.38356496206472845412 1.7342940321251079094;-1.0190422644800654073 -2.4825561509269125082 1.9055100623220773137 -0.78922907834165334506 -2.5835298631367096256 1.657304777723269229 1.2871759483764602106 1.7079680692376346673 1.0465235649100697035;-0.29216982340320762912 1.9164136591291234257 -0.39891174493714326443 -2.0513341121601977868 2.9734864940084708707 -0.99203258856404386012 -0.71115003108530838727 -2.0429573320558214178 -1.3856357295130541374;-2.3562816732920999208 1.5267019556502732236 -1.9131648930642035644 -1.0569649630224733361 -1.1298577982250752605 -1.2560611980734233128 1.0807183462521969819 1.2419214598794365845 -0.40816564442011210589;-1.4676623039895848599 -0.043714715704164630594 0.64839205171647562587 -0.77084941865889122781 -0.6783810744729006359 -1.2351751339848040523 -1.6251389069509434293 -0.57264136894295070146 -0.77983746914171681031;-1.2747172082238007462 -0.75285741832213326497 -0.80440583413950306202 -2.5556992034001004832 0.54912981349519107699 0.29484841818965518145 -0.17392694110589287937 2.0559480170154436074 -1.796902330176236573];

% Layer 2
b2 = -2.7586611392665991715;
LW2_1 = [-1.5194764424395827973 3.8743278072353763974 -1.8516118113263044798 0.30777761760318855799 4.7634812839272679952 2.0337264031472108705 3.3304217034014524934 5.7139250887730819173 -2.0347852542703837031 -2.3711873165448276168 -1.7964482756917439232 6.0015916687332655499 2.0051469223692284238 3.9512245173483306893 -3.7076361934617803051 4.0278496815540254516 -1.4120086133045404164 -3.2392931465508061351 -1.1871478973148834601 -1.1668269373235340414 1.2294675716937479848 -1.8820660209127064721 -3.467970998770641966 1.160248083253923479 -3.1922961322139142837 -3.3815924147469846872 4.5732421700401220122 2.1934204603994711391 0.27212518800610030478 2.7092342235414617058 -2.357397367539019406 1.8093449220488471152 2.2123931939131074031 -1.8450502173334604183 -2.2218703083138433563 2.0917648683725089676 -3.2361483776373463073 3.3824788746112677273 -4.1062094804173634444 -3.5427959099877304183 5.4300317695232465098 -2.6875245447296691736 -2.0953502854988252935 3.5284019288513799317 1.2921154017489693278 1.5523459204409904011 -1.8786782523453950944 -3.7439464925349761337 2.7949065156811019328 -3.4751579826142062757 -0.53591716559308844037 3.13186599086208739 -2.6775799794275010335 -2.1713823510599468136 -3.6467694882689216662 1.0601459101420087627 1.9842680032270647583 4.6530668731755255862 -0.15240344025775293124 3.553505607651932241 3.6187685371005011703 -2.5778307099784281142 -2.8468448550501168626 5.988832484458145089 -2.1621765045346514889 1.3055709245868443169 -2.6539136981403785853 -1.0034818271813257251 -3.0155615450903696662 1.6689138783406471944 3.3556882361285431671 1.1728330801506574588 -2.022762666762410344 1.1441100294404262794 2.2787673714823544202 4.458363491195251882 3.2612974173862565586 5.6954766560785223817 7.2951069041082057254 3.5041737621764061927 -3.1597354440285112531 4.6514902481968967152 4.5537886231054001129 2.2166970298382220328 -4.37403069640831621 -2.1244562418931534076 3.0357005599573461119 -3.6610975406468568849 1.618154049975924158 -2.3203913249938827867 3.8637452878539941814 -1.8300263385536601479 -5.0938565094675709588 -3.3816528630028890312 -1.2867460095179266144 2.7624624645077702212 0.91654439172012203141 -1.9420821121735596382 -1.7749526806572626381 -0.99038988065853050813 1.2751468206595615307 4.20011198858658652 5.1158332069306196033 2.2868097281537083099 -2.6678343154104240398 3.4561188533356577146 2.0948281004579039077 0.46419236428766091906 -2.3080554658436462923 -2.1840311553629407904 2.9235453895902709931 2.5804363147040190185 -2.4839134985981123904 1.5304563253925449473 2.2073748136288116051 2.8118779834076352842 2.2671290173093110454 -2.3901928711238480396 -4.3489588228451747653 -3.0158992289906447759 2.8638979719792709844 1.6354613757127229867 0.97889390788857622017 -1.086295412277446637 5.9383443573687877404 3.5102274478737371943 -3.805676996584223204 5.325764403792745405 3.3432903432949983014 2.5171801062799721294 4.8914817831495502887 -4.0764871875265322743 1.3199226628365889891 4.0107060958133073925 1.5108706005156724572 1.9929773064331910426 1.6057167911929572934 -4.7456959929702255963 -2.103528967248780468 2.3563831417485059383 3.34340597068815093 2.844713210739779452 -1.1023098642492974442 -3.7672793524321761538 -2.2420559167430336167 -0.59480390673640914923 2.516804343690331347 -0.51013711158924857081 -2.7843626725016328294 -1.1181735935442880248];

% Output 1
y1_step1.ymin = -1;
y1_step1.gain = 18.2051359975688;
y1_step1.xoffset = 0.00125200320512821;

% ===== SIMULATION ========

% Format Input Arguments
isCellX = iscell(X);
if ~isCellX
  X = {X};
end

% Dimensions
TS = size(X,2); % timesteps
if ~isempty(X)
  Q = size(X{1},2); % samples/series
else
  Q = 0;
end

% Allocate Outputs
Y = cell(1,TS);

% Time loop
for ts=1:TS

    % Input 1
    Xp1 = mapminmax_apply(X{1,ts},x1_step1);
    
    % Layer 1
    a1 = tansig_apply(repmat(b1,1,Q) + IW1_1*Xp1);
    
    % Layer 2
    a2 = repmat(b2,1,Q) + LW2_1*a1;
    
    % Output 1
    Y{1,ts} = mapminmax_reverse(a2,y1_step1);
end

% Final Delay States
Xf = cell(1,0);
Af = cell(2,0);

% Format Output Arguments
if ~isCellX
  Y = cell2mat(Y);
end
end

% ===== MODULE FUNCTIONS ========

% Map Minimum and Maximum Input Processing Function
function y = mapminmax_apply(x,settings)
  y = bsxfun(@minus,x,settings.xoffset);
  y = bsxfun(@times,y,settings.gain);
  y = bsxfun(@plus,y,settings.ymin);
end

% Sigmoid Symmetric Transfer Function
function a = tansig_apply(n,~)
  a = 2 ./ (1 + exp(-2*n)) - 1;
end

% Map Minimum and Maximum Output Reverse-Processing Function
function x = mapminmax_reverse(y,settings)
  x = bsxfun(@minus,y,settings.ymin);
  x = bsxfun(@rdivide,x,settings.gain);
  x = bsxfun(@plus,x,settings.xoffset);
end
