function [Y,Xf,Af] = NNCircle2(X,~,~)
%NNCIRCLE2 neural network simulation function.
%
% Auto-generated by MATLAB, 03-Apr-2023 15:21:55.
% 
% [Y] = NNCircle2(X,~,~) takes these arguments:
% 
%   X = 1xTS cell, 1 inputs over TS timesteps
%   Each X{1,ts} = 9xQ matrix, input #1 at timestep ts.
% 
% and returns:
%   Y = 1xTS cell of 1 outputs over TS timesteps.
%   Each Y{1,ts} = 1xQ matrix, output #1 at timestep ts.
% 
% where Q is number of samples (or series) and TS is the number of timesteps.

%#ok<*RPMT0>

% ===== NEURAL NETWORK CONSTANTS =====

% Input 1
x1_step1.xoffset = [0;0;0;0;0;0;0;0;0];
x1_step1.gain = [2;2;2;2;2;2;2;2;2];
x1_step1.ymin = -1;

% Layer 1
b1 = [-2.685756394035894612;2.375559021335542198;-2.2348228550591349162;2.149465574016350633;-2.2741473137577892238;-2.3557595980374164135;2.1984735667788060098;-2.1932312167988525786;2.3764543453441526744;-2.2200407507775117288;2.1423869831364741323;-2.1680313846314795967;-2.0500592825169126066;-2.0014779032906129252;1.972136844554020163;2.1436512544827497351;2.0378575603669548677;1.8133600001343370689;1.7571498904548030762;-1.9843280933184321846;1.4641550825697020599;-1.7708565850242672379;1.9108893179326860157;-1.8976486587079284263;1.577409372486580974;-1.7217434289869673059;-1.4999965862756265977;-1.780824620370896838;-1.501792481064301743;1.5212880153245642578;1.4005522397922003375;-1.4353853518109023213;-1.2019474212412033509;1.2156797263276570842;-1.4807270222128208204;1.2157230874045208413;1.8123598371739388924;0.78825019347528646474;-1.1203670693503933187;-1.4509747757049757944;-1.4716742493905032863;1.0626447493520965182;1.2397778349015395882;0.8311991489843819636;1.0840638181089252701;0.7512428037076853693;1.0554017706261731302;0.9088583732468810128;-1.1978524724152435077;-1.2871840890431711646;-0.98930265492688429507;-0.86632304262644233006;0.7681985238053052889;1.0174892179418328908;-0.50835366376700752422;0.30397860785723579413;-0.2832282827222145638;0.42360421642528373054;0.18015732990042013228;-0.51101487972438419671;-0.72647231987446370116;0.40964282784365552148;0.075425712428419361411;-0.44634414473106409638;-0.18862511113391175477;0.46495345301297219542;0.20942114731815847373;-0.15699897076772967308;0.23425418151576410386;0.12794704560663414106;-0.38342840211269280104;-0.55732779096531293028;0.22627476834940429828;0.063491690100254696838;0.21802849518779354732;0.25859601976854729166;0.049325705462559057968;0.25135366460411412426;0.097818999720123686603;-0.041234559233346429474;0.24622699266759140446;0.24978326850230647693;0.28923384335724866556;0.018387363088626783314;-0.433579313398313404;0.37966541780245799398;-0.24424518663327332568;0.41383994525530193309;0.27607948917939995059;0.69677963609472748363;-0.15445858480174728955;-0.68008218713608292738;0.86551554653734508182;0.51068657623680424607;0.62509625350487141304;-0.68466773401269476196;-0.60647039211619380161;0.63519310468568090933;1.0397046143666512918;0.64647997523151112809;-1.1028760056872846107;1.1790530980486799706;-0.90941157914504455739;-0.86498569641385369966;0.6468612142560803413;0.95118619736153930955;-1.0279787753240168247;-1.3531540659566505536;-0.82325135798012605282;0.77635872345265410921;1.3031815341669286124;1.1387906415746267275;-1.2391704505724778773;-0.92801145549792385392;-1.176951372719182265;-1.3717125280472384219;-1.7389963825296235189;-1.5048982640568877578;1.6823105870899111025;-0.92479670869856978044;-1.3919549328124674048;-1.4732238660301959499;1.4804735061319258538;-1.2957888498736787053;-1.7624659452928597148;-1.8410062026817308745;-1.6769646753418756546;-1.5255244157460772225;-1.8246349895343028091;1.5748107533615811615;1.9422330929261286681;-1.7900380585265749378;-1.7316855390931757963;1.4754238038284421819;1.9383429521546640117;2.0726528606700345136;2.0237083888064804071;2.2964689469886070405;-2.1926067219207250325;2.1022633276294979687;2.2898586201391251116;2.2526950223519892624;2.4935293319272702206;-2.4407864952902604827;-2.7545992097061327009;2.1006151340280703188;-2.6281008154336027438;-2.2206725918276331022;-2.5939402783605980396;2.4956285490705689689];
IW1_1 = [0.72516818260616910941 1.4117395880591185886 -0.45113442738692910439 -0.55676024226593123778 0.077367685999268853703 0.66406538701669015623 0.0017182877968632270793 -0.54768937236101067345 0.43446525402576835484;-0.96049532716651553343 -0.8749181816715858595 -0.81808290834460972718 -1.3101868835121575074 0.78099678291160690158 -0.40090559698486638585 -0.63556893551213233806 0.078639780242504425667 -0.96116501601152681822;0.21989301141770589698 -1.5317388948146186678 -0.55721575221919061871 -0.71485135274980637909 -1.1729625034661663729 0.95261292349118853462 -0.2519365730433696382 -0.35231327058649480888 -0.74100372040460715795;-0.4917297151363568819 -0.49983803416262945207 -0.61430590778432281329 -0.74778481160178722487 1.6416230952102734975 -1.2923591798032816325 1.1888577728060372163 0.57601046068573769077 0.49750839776671423875;0.81677105301197339138 0.68469209741604974973 0.71950789284602656437 -0.90460100887807626258 0.83221188090731712528 -1.7534701803983134827 0.23866745858435137184 -0.81754285214004807081 -0.058443940150210926809;0.43951512757450772462 -0.69017281738951941072 -0.86969669192963428017 -0.80785120689925338233 1.3336669465878490115 0.87611591188240733885 -0.62941819246276697886 -0.3939960661695001698 1.2817710472059662408;-0.88668438691761253256 -1.4156854175432789233 0.38503695285540806559 0.82707092597567721803 0.23056988976553302595 -0.29155594406393847695 1.181159972938311542 -0.37073273506834375501 -0.89920218041127264463;0.77670818698344112896 0.67339047310149724446 -1.0877955507572250049 -0.3435770035452796467 -0.56642503803723442957 0.96426426718768964985 0.97347753406395676201 -0.015291914034274801948 1.0954514262733447971;-1.2825849805069569065 -0.63606063577076565885 1.1064274075674731534 -0.57219978831633766525 0.32725645910696321561 -0.65580430263278077785 0.43531998676885780286 -0.026182859066744973431 1.1023548318368996402;0.49804048507468878793 -1.2138603034347907883 0.0055328664909107018455 -0.61796370779374321103 1.2578637041785933892 0.93255687659183761351 0.038364015129170085661 0.89824085018210542142 -0.5332587452728713151;-0.26930588594733395613 -0.75924467895129199579 1.2228418659376396604 -0.53846432849730696546 -0.34811630281066591186 -0.93771415205426089656 -1.1058629090132634509 -0.45875972831354810966 0.31167673019081493235;1.5720093686220077966 0.36556840694443221151 0.063276836876180464486 -0.48384736243331200045 0.087450032906058461357 -1.3284943627684258072 0.046765680282446125959 0.1763259809583587745 0.058336073623180606518;0.7448771960064282105 -0.94998776256166106435 1.1122875227921604768 0.74345682431891368935 -0.41307223123494912764 -0.11023791106105275406 -0.69294678769967443799 1.1511759931649496735 -0.097142273279521310081;1.6275463749777323574 -0.066968028162855325336 -0.94125713795907040016 0.095254076110924457144 -0.87640674913129557044 -0.71670244751729939026 -0.75545922026404566108 -0.29238817131155797613 0.7132449817322694674;-1.114164808761991754 0.63746197762577538892 -0.88108883692633432894 0.010961905460108195554 0.77550628525471276831 -0.85673634637527151803 -1.7151806851785049712 0.02824150102924951472 -0.28622714138030019848;0.21316368939212471112 -1.2354823175628788512 1.3295967543710123238 -0.130684383237245072 0.26287656842950091196 -0.75198389050182767868 -0.60952395276415805014 -0.90340752588947703661 0.68090804424812179096;-0.52275901298194749067 0.17011830834426167058 -0.054661755629246681909 -1.2899589935328328316 0.45922288430500579626 0.53532227782076458045 -0.84746917527126319758 1.5113359965961081777 -0.90270708721575543265;-1.3682820073775265879 0.39228357631548171902 -1.089434179237546152 0.0151104817819163878 -0.34897721812819182396 -0.80075666788444599398 -0.2949684683254641393 -0.10443132759144467536 -1.313442146134690125;-0.98721022349215992175 0.53260643463931200969 0.97127349186742639731 -0.79887831576969769998 -0.93582685488748651448 -1.2247466089211800355 0.79786818158368388865 -0.99551184763282996038 0.20016730229157281284;0.092451601795660420802 0.88829421976586042664 -0.28061719037770888052 0.99614763008826978652 0.58443646289807504868 0.90006957254474961871 -0.28070642331257567026 -0.8753210074349190295 -0.8694567741631962221;0.11942667135221132768 -0.58973648445224302606 0.90478274216940590691 0.74909343382713822201 0.20482682848665792474 -1.4170380506886841587 -1.1221467964504601156 0.63802956100715624288 -1.2156751512812191685;0.47554472049903895314 0.68211153249171452284 -1.110949353584774757 0.67948028961972628537 0.4415040579170609325 0.0080942492791630533261 -0.28345556433706348143 1.4315868192058753827 -1.0717433814097085953;-0.77557986461952754809 -0.00037281553511692329395 0.23496332319980273162 -0.53751459248309341188 -0.42944549604543208465 0.96274758713847530256 -1.2840090101578178761 -1.2372535548512917369 -0.44467701197988707129;1.3005471836713671241 -0.22804096039983867694 -0.41773089184486766889 -0.29370636929030113915 0.31669269150217643771 -0.053272678914107238213 -1.2754322086854432694 0.39967433060379775611 0.93480468856269149924;-0.45591732174488253104 0.68376326100330220292 -0.74886105385627343978 0.22021346504722924542 -0.88917603419860669067 1.1108357830191066817 -1.3830676145139448874 0.57928155062589092861 -0.67745940088789136091;1.160357053164184693 -1.0744309646623235732 0.936223106302300212 -0.63932960046039177815 0.47905391573073602407 -0.59233703272362869807 0.20198291617916272478 0.86053743434153573411 -1.109700036536483081;0.40531566558048248705 0.048217861646457971236 -1.0389938186878704407 -0.57742845657715879959 1.1152480811547604844 -1.126869388594792909 -0.52991770517251723938 -0.27621410481520147773 -1.3085740193610333471;0.048623282047595389743 0.74962026114543367505 -1.0183835700034520322 -0.25424967005054438518 -1.1718496430027975919 0.38480385208751699544 -0.58706257242515924588 -0.73686949006476842872 -0.97290486673956122488;1.2684458029038385707 -0.17680101584177143614 1.2002171646106594149 0.57284061729962654219 -0.01950151483260303964 -0.51363985604742623536 -0.016327739395142565337 0.92070892392083492073 -1.1544524403923106526;-0.47021430377412376522 -0.81135808970463063616 -0.33360632852112115376 -0.93121236369525950405 -1.3840822862076183064 1.226447489361365939 0.23195995665292162835 0.63845279496675522157 -0.51388203367740070693;-1.1155067032987029396 0.31685382021699348698 0.80207074719834525744 0.55654608498901581015 0.76024374245034365138 1.2005198828193970328 -0.92179858985931761861 -0.97383705575581946956 0.57243931037099371473;0.069655748861740557354 -1.2137115708081551713 -0.19937781890071154534 0.29093133844202823113 -1.3266023619625915142 -0.011284286168764312563 1.6404140322537896779 -0.30825422331918633789 0.30564602464277446092;1.3532906273541569497 -0.0012314205140241674119 -0.73601907484776041279 0.73681667156050234535 -1.1344707040992254576 0.31115561151669607343 -1.6239093833340456641 0.96905706967779059458 0.50537690954551117706;-0.22469070089233791898 0.63201321374329288982 -0.024303051755348671625 -0.26920352332885461033 -0.85818600979674442009 -1.5553669033088761697 -1.1635668445791305103 -0.9627189129329466466 -0.45858415841206645602;1.0263049492955942377 0.85889015175127181312 -0.19416253131941940691 0.63870528791524772139 1.0203345033460169411 -0.60743319661804495713 -0.98550933378909677529 -0.50777804681486071736 0.74903997569987068594;-0.37632796841347243566 -0.16498655114527505106 1.2195830532399720703 1.0813029730158605357 1.4102044835607017159 -0.50344157624526331141 0.44262657123397713965 0.29126939492799913678 -0.97888634407545105365;-0.76985009621035560556 -0.24410518422476318312 1.2121948260121122587 -0.66168950647857782688 -0.39973056631390779803 -0.83543056764357648269 0.022232557822233406375 -0.85554930752391000759 -0.14524979376149421695;0.14860447427946033017 -1.3600171755989494127 1.1087268270229504452 0.86537767207169968842 -0.31510136078180478458 -0.67640590912615783381 0.27919129705755196813 1.4800319608760699186 -1.1926771967308678057;1.1342638091084997765 -0.14094473828065862131 -0.39702779300167767573 -1.1779021206618889295 0.60797906943939949986 1.2557432697702608504 -0.31387917184065777798 0.90062308386981593245 0.71592385650194056979;0.67826908335887436952 -0.68139967037405169137 -0.70272658102961027549 -0.77856433571705263574 -0.2384633357784494978 -0.45754840430264703821 -1.3511454791115307117 -0.54701441119384175416 0.83763986434050208274;0.62378187387143857467 0.74913968951093257154 -0.42585657308658525499 0.44234479854067548787 -1.066558305312511834 0.30942930469808160865 -1.184278088524238326 0.9815617831689871231 0.88985603076886932161;-0.39686736109317033439 -0.88025507256035928627 -0.5724958533756709933 0.15770478546898428207 1.1376818512818709372 -0.67659191052954559265 1.2609633666374018279 -1.5533540778111334379 -0.062046363016399347368;-1.5609939011290312472 1.0094908710394547846 -0.40305342861491483264 0.87030397851744289994 -0.94250549556274099139 -0.33759411166718727992 0.1094385412969219179 0.80049244421299481367 0.027198439089425673065;-1.3423047892330073338 -0.46892024439059237784 0.5886272521481137332 -0.28688167171734058059 -1.0810505184498453435 0.74621337436557766409 1.0761182972961251814 -1.2667547253844886335 -0.49313308229302477148;-1.0325824812811652542 0.66580253734450800529 -0.94675631407430760333 0.61878514233942327749 0.88624687581521421897 -1.2068785270016586519 -0.19266149178605460057 0.62337979568158530252 0.43832987907626791424;-0.50926504541489625577 -1.5719505826487720768 -0.64794794879345196659 -0.5899117796060646679 -1.1629086736200562324 -0.9028007233054207159 0.12234463108520481078 -0.214814294995637034 -0.34166566896197619885;-0.50290851630807087425 0.89953110526175683592 -0.44236210665807318421 -0.26173403770694769754 -0.35948523946123206452 -0.60699802563339444461 -1.3832917191711839866 -1.069988538080785867 -0.19461580329159544611;-0.38058689909407089624 0.035605347629991936087 -1.495366111317382396 -0.20654981038375960778 -0.68722093662101502165 -0.022737399236147631115 -0.32737721822147858308 1.307886782558415506 -1.0902661050910900098;0.72466668477900997303 -1.3374257180653470467 0.62681628458506177815 0.59927057914562575913 0.98878835867187886421 0.41615947846349177208 0.39272558184023947936 0.4999971102749163343 0.81712990814037733678;-0.1222927289494736558 0.12913853348500917151 -1.148159324412035831 1.2876845121589246546 0.20394588914580794037 0.65377559811214480678 0.99235249969846872631 0.61331717175909317152 -0.73573702637420634876;0.17121590989345994438 -0.7373545182361247452 0.54110117932590395817 -1.0094403048222970742 1.1277673120958557895 -0.87386137845537126267 0.86614449293927076035 -0.76652200791782165723 0.72789049426978635893;0.36521039417356360168 -0.048449062585203470088 -0.95980043981969487277 0.61918652671869534032 1.5125774283279376231 0.66387434941407907907 -0.55296334209621889055 0.81665433806889653479 1.0181650759132747641;-0.69363599955134991326 0.045079873524836056031 -0.4838522713714961121 0.75336858370151849051 -1.08829182099018551 -0.62465199392555925684 1.5388911456631690911 -0.82483019403826984828 0.24214668952380394296;-1.0562780647922931365 -0.89700663089466314837 0.49779465659776722664 0.71579286152052101766 -1.06111289695615163 -0.0032630055624365272848 0.72640894219420704125 0.57926180231580137736 -0.71469699291277177799;1.2653215237385591063 -0.82516642228227521372 0.61045025440957312313 0.34324201693158906679 -1.2923111904962405472 -0.66177089315656012491 1.1403413663087751395 0.8747585896724698884 -0.059688182562553648847;-1.2516914122505706786 0.50378214764442075246 0.093974317691073741554 -1.4234514073144615143 -0.19012612202202522349 -0.24951684228981102498 -0.77203948101630048839 -0.93212582746776950771 1.0107765624879818667;0.33358328851813862093 -1.3866077393041589261 -0.53780173601564340569 -0.83379945418375178701 -1.3257228911203731148 -0.91944709657711554129 0.81601905179342404395 0.5362271016246187294 -0.22819174264603253599;-1.1735591630599520041 -0.82324290562734414589 -1.2103789854338025123 1.3594575031350570882 -0.31230711395958832277 -0.7693142373087957786 -0.51166145843790655778 -0.36493186808238908814 -0.13420241380205080728;0.31889631667775386603 0.31660131170868355266 -0.58426139900587448217 -0.46126143606117026019 -1.0272563368873213197 -0.60610438117296350224 -0.36996098149747635997 1.5982136690703621085 -0.64567013104922721389;1.2452802655315666769 0.16295209649504199811 1.2110505967211526723 1.2083145702269577626 -0.22152906681170880798 0.48030122738899894141 0.24446231297241363678 -0.91568797760111919626 -0.68946559430281117997;0.51173418919832225349 0.72950844058522101854 -0.93788105035299862422 0.53588491893647494102 -0.73580358971927095624 0.75347139808991536736 -0.85313301474214753295 -0.50231985516546950876 1.6424373414715023323;0.079226566370332499045 0.82260605363518135569 -0.45433691183714203232 -0.90545173950407120689 -1.0561593436929610501 -0.045290437578856007628 1.5399244286556730277 -0.10496519210603762196 0.7159237612738053036;0.51383789685235425893 -0.77149758593890260805 1.4544832835990768594 1.0037587468164446136 -0.26307000721494522288 -1.1010318280155160231 0.19756356191673274392 -0.90044474073770119915 -0.36661627817803482676;0.21208813281119948124 0.35245719623317500746 0.92225357958866915897 0.20636136288034251374 -1.1309201215787216821 -0.53667106966702904369 -0.024651274873756845452 -1.7255404010986210572 0.70233398528222712454;1.0815784950176845491 0.75564765603550210216 0.45310633988485404799 -0.49512982739102057161 -1.0037613506913092287 -0.84756057306255738748 0.87185689066108162937 1.1204187180606002272 0.30749152340425628394;-0.11226017616987959968 0.27302056969554655552 1.2030466126101049262 1.1316407143643456568 -0.26497374233136067323 -0.78179867580336126487 -0.18290993047301334906 -1.3449619538527233242 0.36985875620047908852;-1.324498019095110779 -0.82869775674989742953 0.092028992854114477495 -1.123416935649225179 -0.32990331662068878016 -0.79428288577688987981 -0.074855639466484019673 -0.86874249707530726283 -0.051731545915856200213;0.70676560261058796186 -1.4293913094828005761 1.563476549130253801 -1.0508857033156586702 -0.75632528007299992812 -0.42520392969032411168 0.25665440096151187488 0.27083006167252154928 0.83400783938291356279;-0.94845634238228915258 -0.55453779036616324127 0.36450791450326219811 1.0454485923577965245 -0.5824015882405837452 -0.058768598639065069977 -0.60474636414699189935 1.1566046121728272844 1.2603836601451798849;-0.51668155357557632446 -0.26027294644407600321 -0.8645710889073910943 0.96124760935049069488 -0.48598756558551758911 0.73787143423243595208 1.6183090945992051335 -0.16093580523692491147 -1.1669877109972532914;0.83576892987623307985 0.77572804987720023195 -0.63467054313121462616 -0.57886877710794237828 1.1928937276913624821 0.063936765548957233407 1.0192513910550078382 -0.88889026962911499297 0.89113764779904292013;-0.14771004270351653642 0.40920972400860639029 0.63035093840742351112 -1.281666081361108267 -0.73195606212766495258 0.23399600741704296158 -1.3766262313507129367 0.65176858837242479527 0.6674166141242549033;-0.60837298054197053165 -0.68019609058834595849 0.57016063609393763389 0.56478826234953671825 1.2293170126951549204 -1.3646591930980704888 0.18760927130389506989 -0.7557541655975781314 -0.84637656470440947309;-1.1138516328911678421 -1.0300551767781567225 0.97564962060814497402 0.8192875529057608297 -0.43491153574733826259 -0.9052703340808280208 -0.32672358827642156154 0.75593611601830346114 -0.67681295253353246366;-0.69065875117630193269 -0.97019664830730967253 -0.39393499184716002093 -0.099045482270341642095 0.81213593352289248362 -0.5752972886567092603 0.64307514761917083934 -1.5906783509415545197 -0.90701039892357093741;0.086227114473248572812 0.17250238653087926477 0.18027983327964786087 1.2169191182932792561 0.46518064369160583293 1.2632646897932013896 0.92939248231864679539 0.54813977334343344516 0.97902312722599604822;0.17154655257633261156 0.285657791820405349 -1.3321124670028872128 0.09472392750287524088 0.70106664615147973318 -1.5970886908234467327 -0.52134471073946697661 0.29308241940324297747 -0.83913085702471645888;-0.4707529869293935465 0.26545520227685243109 1.1373291989492761989 -1.201799578729783935 1.208554925597081553 -0.74272917843238273061 0.37239032511700781436 0.49331401734063462516 -0.64998405758031496671;1.4444887264906978164 -0.58734650821254530406 -0.59325495427512597857 0.62856116360063063464 0.62263177989688978098 -0.89964682794118022713 -1.1448234850260814444 0.32955034756049633726 -0.40966498851878008214;-0.69086542106065229607 -1.6003914756753823134 1.1376770703475007629 0.52167584780696729663 0.42346673909728782537 0.37919418893171608076 -0.68294588231099040421 -0.67367547386290071998 0.041468226387199810801;0.89931050815564106404 -0.32320684773287655656 -0.55599220610660060604 -0.051345443387524336565 1.3449825319474155716 1.2407885454755329668 0.64584987506757662867 -0.099677421174969221829 0.83757462268456051024;-0.0025798933533470493062 -0.13035945020644071346 1.0404189026539352181 -1.5560901373546525139 0.47458909678376259844 -0.076078635697807511784 -0.3990741674021318075 1.3346011647406255118 0.64411879370949354229;0.31359628101948439083 1.451152024895876913 -0.022918241854555730652 0.72545336568080276418 0.77990007061106225716 1.4656825160305591016 -0.0095346653816131762826 -0.23418945592188666893 -0.025942473394239742163;-0.015919242729935764724 -0.34297264733677290671 -1.4316250687662028795 -0.25361757295192605133 -0.16042733947981405174 -0.45164750966130523535 -1.3900434386130873232 -0.22791877084888426119 1.1846225460766226512;-0.80121335849069486024 -0.39636563111235606494 -0.71819395058290003142 -1.3219979391421916581 0.79285813452065456719 0.31509280021765395663 0.0061802386557089361574 -0.034519037822196160792 1.5319645168782176636;1.1432749501196231012 0.69664652743077104535 -0.91734565835711523452 0.38627883201802681867 -0.13255482117306099932 0.53863478271049181068 0.74742991466247499233 0.78563980473938077598 1.2737083972261256104;-0.16818360815138611031 -0.53349767096062539196 -1.3439440629483836442 0.32257714842099588504 -0.38499396303078248227 0.83465343102418887433 1.553042036309381535 0.72783720200500645614 0.3034138441299708;0.57351487507678211575 -0.096367410550451268469 -1.4651225947089301371 0.44433550724109982522 0.41710632687601861823 0.86676363309050907802 -0.98957387531518303803 -0.071672982975489768487 1.3222985142747647469;0.35127543096104085762 -0.72693010448169326221 0.62104617673997652982 0.6878197278479286636 1.0631756575538235943 -0.17647604475362921317 0.5504704159842215283 0.98540732059842239821 1.4124709241891402201;0.40033309187879878577 -1.0726607875748783716 0.8272736806045032365 -0.3095225569305601887 -0.9792470843324438956 0.78378314390313030824 1.1364220740275658983 -0.99616594596034901965 0.41028476472866159952;-0.73309987274181487305 -0.37341911681216244379 -0.30666543090845188591 1.4335245909366669537 1.0201728070636217893 0.61241004916304886407 0.33274553876531609564 -1.139639237292139784 0.90333534937506487772;-1.5768347830522777553 0.21605748554438602982 1.3128974003943409965 0.44460773608227932563 0.40712893890740226022 -0.37352528105368437705 -0.35269965899570315804 0.76862806213994572246 -0.23082131762345986514;0.20887015253964102968 0.96110239899864902124 -0.89389278224318902133 -1.1162446596784403319 0.80108009637281085702 -0.2576678424816123969 -0.9242928340207833271 0.43796016713341945348 0.53930892227506477266;1.015767159282361165 1.2928920780183810191 -0.94162357722296885498 -0.16990150672149986755 1.0957182974273074194 -0.48986952641103187478 -0.32422188159839981925 0.0082024045766423553383 0.60860056310520216361;0.41235876813280070152 -0.59091152463473839429 -0.45917569226011945016 0.15372674550177067854 0.39409770430486551485 -1.1147645680751803177 -1.1260338172266473045 -1.1177334493243245017 -1.0837093465714493501;-0.88004766205083273523 0.24684018714962266405 1.050411262450311467 0.9417091536170569821 -0.69877762479960603414 -0.86921128788390666919 1.0919413098600674328 0.093395879754910093862 0.90614730489679029546;-0.95085649514047698716 -0.53814454525862376322 1.2410871561538916463 0.19752754923596566039 -0.96311416209849709524 1.0752354527363723324 -1.0088762347358497529 -0.021607363589269096282 0.46048650150995273922;0.29419035740455057315 -0.62324789163369065381 -1.1948830834485835162 -1.2146151187680342964 0.48321042239670525253 -0.17478748436286448142 -1.2498069626769841012 -0.10593778845552490053 -0.83570827503134836878;1.1992550647374859984 0.7548554077987512656 1.0013336125381953057 0.93257952622829953793 0.056892196311057519065 -0.70748023751652067137 1.1737829191953124131 0.36055783223427900763 0.68895007981339806413;1.1235978641566892744 0.47786170491317253584 0.83551942598753747848 0.2052633637189110738 0.66867177814805855984 -0.38992415663137502957 1.0303473587479563545 0.18180575878996443895 0.493489272477762142;-0.46553694140237777965 -0.77532692510817369236 0.64154448172302624975 -1.0376074600965525807 -1.3321330960082204964 -0.14311840366837225158 1.2319114646373647837 1.2265307161154617166 -0.16855845514910555716;0.61809148709922345777 0.24626493808759628013 0.58352222013937760092 0.34226194904827406118 0.39190758147648374621 0.10522678148290615097 -1.6834668283593052784 0.82212622062093443365 0.3164722524604550169;-1.2960458170151873958 -0.66726091046660962469 -0.79961854940174936779 0.36432539923321682895 -0.97626140534097372026 -0.16338057937214267579 -1.0146359928684516305 0.85365203239848819194 -0.64678868590513860504;-0.82502616740824374908 -0.70995930320130229418 1.3389870284134943734 1.2749529129713126352 -0.6132942224493901362 0.010325523004624484469 0.75738254766367740789 0.88502492523456666174 0.44898187699680985885;0.78327816872920341673 1.1534566674029034239 0.45699064770553854409 -0.16856291252956812077 -1.694016225382103169 0.4153876383048192289 0.19799391074918831768 -0.36203416278295103004 -1.1398599718069588604;0.42675670964992745704 1.4564117170450221472 -0.20363840388557413741 -1.2334428553385510252 -0.19755841271281718297 -0.20798199401578421064 -1.0154451728819311462 0.48531387760738947668 -0.85178330042445149495;-0.10031064577803916471 -1.4846322131222358109 0.41208598733004753178 -1.4680115930739643382 -0.66247208041905802922 0.45901030899006334263 0.33430454591519309648 0.23359912572111388163 -0.57339333935821190646;-1.0830943363429139659 1.1611688789029392943 0.0094424496407126325831 1.2907812974298491504 -0.46228332885134776342 0.18749903314258531406 0.44712928720358868784 -0.45510684136123125132 0.59229105466646791989;-0.94984554659583919634 -1.1203986994479628869 -0.29030145500067594533 -0.59642077930976533651 0.99205125528131943291 -0.77645758936746911427 0.30255573814436825808 0.61279376679724062438 1.6461465971507645012;1.1928366257391649352 -0.59006898305911048563 -0.86375351179924642064 0.42941860646406870838 -0.80223256508399853892 -0.8027075362992642793 -1.1238578948791113632 0.75289622782937248857 -0.8926472849421321909;1.0856697035048537003 0.32344208631812365606 -0.60566483169649354412 0.11335444818185796967 -0.073356890820765935368 0.82828467501173652643 -0.68132367696918427757 -1.1465246202532111131 1.3934865694891520604;1.4819046044794097483 0.50106190999166644318 0.460508406534151149 0.98211417738203543593 -0.4027735777790349414 0.14946089837979531501 -0.98951765626132592857 -1.427590723786096305 -0.076408389943068630301;-0.016754945425118350499 -1.2131603411204925358 0.38438337195728666806 -0.76370737968818647179 -1.0756078622294462654 -0.34968275731441184062 -0.7177486189472382927 -0.99608313745040477638 0.70480423703554251347;-1.0530705285557009354 -1.1949364922047875925 -0.22900395920528324178 0.34295098703777826543 -0.64162368017625603933 -0.68592380373816985717 0.4276682989505691812 0.97919616674181508831 0.72690783174465156691;0.44161464513706727431 0.22383591986293113751 -1.0850541349126101576 -0.76395620999360402958 0.76367607834238782072 -0.062740117149511748229 0.95760658021482580882 1.3690894246625728847 -1.0923498494626571187;-1.2776333667358696911 -0.41855706276106885433 -0.69629100331949611569 -0.58795515523594177321 -0.056678225733620204996 0.24260958999932955016 -0.75998043741950882524 -1.0956598355771427489 1.0770056852628471233;-0.20996989274325489339 -1.1618500578309221005 -0.70348496146593364475 1.1565452781299037088 -1.1572301094891490614 0.4371666261020530353 -0.29788768713858870818 0.88918417749297828934 -0.25618969312645656355;-1.1711796772228606489 -0.41219459630353205704 0.41568134923482041865 -0.83566953687603229284 -1.0354666052913512608 0.52595770079453174617 1.1421949069613925865 0.21102189405044657899 0.026069116193317760921;0.49082740178936845599 -0.49390390428191183192 -0.40864636723330788337 -0.021765426611674243418 0.049498762427837510181 -1.2089439869037923447 -1.3279725088773350894 0.23770730629599470807 1.1491466629420263867;-0.88022282593301903741 -0.77836592619552047445 1.3679043786302877983 0.56896858304209085855 -0.31698006919912141699 0.66485576753227837443 0.6090145526107613172 -1.0199202685667374535 -1.5562339510510057039;-0.4601101699622550667 -0.34258026073033004399 -0.13682407296881091141 0.61088602417338999651 1.4312801971647575172 0.93835480359343814705 1.5213826669339267639 0.41310808068912707736 0.17514153342794419599;-1.0446702911729039975 -1.0429902423424639579 -0.76379376232240558942 -0.61350428421746761032 -0.36757650963356025553 1.3547366215674709888 -0.052810834606449530426 0.01493047136348263533 0.63968437712312042898;0.74167423363869755537 1.2270138391146387935 1.0465878898864744428 0.70172564865363185049 -0.62681528971535760419 0.49945434719198755769 -0.47166524263975379005 -1.0629650650583368776 0.32250650612294562425;-1.5209432965556026751 -0.97924513523169309792 -0.8900374441270945125 1.0850712534394402198 -0.36478173577557582163 -0.99314463842696687479 0.54228945133313566362 -0.77066798776057587883 0.0014890718584523177093;-0.64314747514615266955 0.86446569435815723281 -0.54989562606618158647 0.93024993919967147171 -0.58047874984982916757 -0.78895796996501343923 -0.18810258214223940509 -1.4743180596126028714 -0.58841825465755459579;0.14532371701059199065 1.0413557908744013325 -0.72740192824290117457 -0.86339568086526274904 0.29528361308746453595 0.70038019674441120976 1.1432416140900889534 -1.082368508046004818 0.36465945093835494539;-1.0375732654874993965 -0.70530903463520056018 -0.98157038793880901917 0.18495262575269216798 1.0111692555051423614 -0.40237998068028657528 -0.18793333585092480975 1.2099247940477804164 0.8133479085896887506;-0.14954256460856524269 -0.48619141724071518462 -0.64381035319327328814 1.0945886952596806108 1.1758224863498663026 -0.96835963941464975324 1.6831763367157295264 -0.88638765309837841411 -0.49624850369025319541;-0.39549734353268872766 0.74225664917602229842 0.25128533391941643149 -0.79179516111728354133 1.1403242501917967289 -1.3558482414707020425 0.650820069731650519 0.75430095462865776046 0.4684511616932059419;0.78599859471634214714 -0.35024945402788165705 0.99534894015184427474 -0.081673800704783139359 -0.76246366069178928004 1.5257309196647841354 0.21719620376286422059 -1.4623661596292940601 0.078840495243215624743;0.24052825384019177468 -0.079676416000163535758 -1.0954823779367484082 0.7009783066901431603 -0.4761931700660432254 -0.51575535753344359247 -0.86695286666640714035 1.7910971164235680586 -0.19554901688814643745;-0.53506529193477569972 -0.94672237332760511563 -1.0710676407143489008 -0.63742215381661682105 -1.0511835692638680229 0.18140021584599785864 1.2460495332769176979 0.20529775405552569412 -0.86874886296250586337;-1.3879086044991026938 -1.2575125946893392914 -0.83671342465141229638 -0.80521393439700739147 -0.3639908037143959052 1.4134418354126381256 0.059814697669207494979 -0.17188937358146455514 0.79590495282409157163;0.83632158947891310774 0.43605387680846541265 -0.66453993060376459479 0.50519200212654580273 -1.2331154548443765684 -0.6413359465073921184 0.61868863649737027011 1.6105211266357546407 -0.5423441027461618491;0.51088830619372793684 -1.0317283998337050122 0.74734959943400480764 -0.13712541816692896957 -0.54254353895798934637 -0.23306748041816457984 -1.2586385228166991901 1.1769490351412161822 -0.9112401053837531073;0.31801974951114458934 -0.58896101941872713859 -0.16102344322710790414 1.1904753938273828773 0.93359579410293946911 -0.96261315646558753834 0.74513521341309463253 0.84234554720616294787 -0.86784994951655769491;1.2890672472861319786 -0.62343715814824318677 0.57267097750228690423 0.7682008864785399016 -0.44106679352594324595 -0.21574374531460477344 -1.3253275561791666437 0.69609478418523540455 0.68847563486003193756;0.18321559095295719688 -1.2477425823693022444 0.035747128242142350851 1.2293714635473675933 0.99248140719226285444 0.45843125199293344174 -0.54192491942680087735 0.18425144262180073729 -1.0739194487359868813;-0.049313271293908889081 -1.0271274378018955264 0.18599798567456748977 -1.0284826663548527481 0.63870717038375479646 -0.95985915575272107159 1.1916100548174579643 -0.70388817112482526817 -0.1705945783677811356;1.2312780563242808896 -0.98257162232856443129 -0.46581129820700817312 -0.5408727467979126402 -0.44536518558550181046 -0.2773348303477036203 -0.22777760780015476882 -1.3102263512179694871 1.0551395443444502309;0.94761124555453968288 -0.88376973648196288647 0.29321538849359674028 -0.63244293572544352244 -0.19131658668803300238 1.194560609101377624 0.12952425815082332927 -1.3290216169566382298 0.78108486799643128684;0.45117392274663592477 -1.1545478517155458587 -0.93558178082601917147 0.46776673753148312329 0.40084327325413393606 0.17263036489949898367 1.3037513800260878138 0.64944319043530862601 0.57964791211060207043;-0.15047750299809264929 -0.3256706962495692359 1.098971500446807692 -0.019071813372468444936 -0.17845553455842194657 1.0602825118310668095 0.52322680133058585561 -1.0701403142037317906 1.2910619307838200331;-0.32983198691218618137 -0.96822782978461718884 0.88359893442744785741 0.73596658587120011852 -1.0028059351053875137 -0.36470378337153896986 0.31592530598791673802 0.70735407267615879601 0.0067950952654381169271;-0.94862201718749361579 1.1056350809807831137 -0.28223599393581172423 1.0442110406576190496 -0.72178393854105837857 -0.9047543308275549645 0.038249881752390080258 0.31427353527993040494 -1.2003700037573847847;0.8937119771768621268 -0.53197871612202640712 -0.85825056088987283776 -0.075177551432707545587 -0.68376785514863747117 0.89985824138108838621 1.1474687313745257633 0.11306103238837325597 -1.6831844014398047449;-0.70161592237197056843 0.0060017164273291710025 0.67325536617987524757 -1.0218703730797398244 0.82245547949970554402 0.18322702537286264524 -1.0102617044836343929 0.12984124723669401846 0.13516893292724407871;-0.14881239482707009358 -1.2773065364980715763 -0.17954853641101559125 0.17054969318123272548 -0.3136429588575524452 -0.48048220504571081957 -1.3644899834458779075 -0.0074141599498254266709 1.4089389549213273689;-0.15643841916890469101 0.63597876924952811972 -0.53011271942377347077 1.6388173812102579951 -1.3130865293134132976 -0.31374366550304877421 -0.32656040248413970017 -1.4126180219863140319 0.77181812737198862706;0.2042715951995554835 0.99466577071615269734 0.40438442604105540035 -0.014632329755044276576 1.3102858935848586963 0.15990677188514573759 1.2658440706498190753 -0.30717817055860341391 -1.0369159884651530934];

% Layer 2
b2 = -0.47862870720665551261;
LW2_1 = [-0.11420484701544755812 0.057804533671388796945 0.06232305560235722186 -0.048852061770452370748 0.072755608958939371744 -0.060748935842494571069 -0.019051256708219242719 0.010793481777585236386 -0.055580916977057269468 0.013158307520085059383 -0.014125976361062431846 -0.035455747172280116519 0.028000046593957321484 0.028167201685763289254 -0.035928411454121039759 0.057020177260495463756 -0.074348789893079442193 0.028043471065675031756 0.063846909297215717616 0.024228068521416401548 -0.048937912762356594598 -0.016400892969734244542 -0.017283182304823660469 0.096595354704422417558 0.021114029017880901057 0.041376665091907488536 -0.02384542209816122027 0.024806916478928187075 -0.029416314687064078204 0.0110704482004514871 0.021948985813052299815 0.042335742179266534768 -0.071824405402083513206 -0.03903412520425436627 -0.015107296626331343653 0.0094803328001616966186 -0.040377760649316175867 0.048201300530450068293 -0.045915450997244221243 -0.032768956534990179019 0.096415265614915923731 -0.033612640854563197168 -0.023743768056308595105 -0.013399769203081588614 0.0040181272406419193954 -0.041325807651850211821 0.025648321193656679201 -0.0084014317223902006126 -0.020487806420113031936 -0.034761621267372325161 -0.025597651370826306205 0.0016604534811919986759 0.0073137833655611142816 0.021885576034475211216 0.02215256967793594739 -0.022465454737866090429 0.042655435975154525063 -0.039872580339188987142 -0.063593296100141874505 -0.012438723975924820611 0.044888942615608176667 0.0013433263422248271912 -0.022369416765798781632 -0.012975666682221014339 -0.011733030426486722869 -0.023298207187243544919 0.034187806394098532725 -0.03084866688415622768 -0.0018588263287634143334 0.051698850434114977659 -0.039399431400151105342 -0.038056614502716273885 0.021431452159093054843 -0.0022484694298009742265 0.043124575245888904784 0.0326030967785261791 0.014699803805631517228 -0.039151871250161174309 -0.0031177073441782257937 -0.0082908831272759889869 0.0042394986183753790784 0.02708022395722588585 0.036568859674769041423 -0.029744813742944957446 -0.023166086873992096373 -0.010839095063074689548 -0.029235256807158518239 0.025936128192052793073 0.022336384663473974471 -0.024864288998186052926 -0.043338317673743124991 -0.043844056277175136316 0.034620266325656491591 -0.023534963891520030432 -0.013731055404418181926 -0.019830866113783682941 -0.039938869893339945527 -0.013152959579210157792 -0.022346231939301561265 0.066148135191760562557 -0.073629436564163000534 0.080273053584976925001 0.019881316323035469473 -0.035512630115382928797 -0.084278234955742631351 0.0048244166860713219233 -0.0039238472187380878109 0.0079414414113055074862 -0.066707746456322644657 0.026660243514215087313 -0.069753738037806961581 -0.024616385223971970486 0.037742411689358823512 0.084121448338840970615 0.058248920168423756749 0.03882662874536660369 -0.037740386480637051758 0.0278652647811252277 0.046533854885131092916 -0.028481305557164621894 0.024788022164900485461 -0.26369447687724040241 -0.0068714432388325601478 0.029231911476001244676 0.032041493847395075001 0.0077827868954381106831 -0.017672379723456758255 -0.056509709359294058029 0.018584151972427628147 0.032559818065013707011 -0.041950626127016991951 -0.0094948463665394215727 0.20907613511231315506 -0.032447030537348320323 -0.015846625868332311904 -0.035957084827997712329 0.0015607688501093348443 -0.050965485816164821098 -0.002765272618578467137 -0.014770974194241634145 0.085118363104071045888 0.0049358811524338047638 -0.05577699989381529333 0.090748792954664370125 0.098035135218683400193 -0.036165394318434289367 0.032654174056373622137 0.086499039064248758879 -0.11409513772922609542 0.069876804816313489721];

% Output 1
y1_step1.ymin = -1;
y1_step1.gain = 19.9574543180823;
y1_step1.xoffset = 0.00899669463513857;

% ===== SIMULATION ========

% Format Input Arguments
isCellX = iscell(X);
if ~isCellX
  X = {X};
end

% Dimensions
TS = size(X,2); % timesteps
if ~isempty(X)
  Q = size(X{1},2); % samples/series
else
  Q = 0;
end

% Allocate Outputs
Y = cell(1,TS);

% Time loop
for ts=1:TS

    % Input 1
    Xp1 = mapminmax_apply(X{1,ts},x1_step1);
    
    % Layer 1
    a1 = tansig_apply(repmat(b1,1,Q) + IW1_1*Xp1);
    
    % Layer 2
    a2 = repmat(b2,1,Q) + LW2_1*a1;
    
    % Output 1
    Y{1,ts} = mapminmax_reverse(a2,y1_step1);
end

% Final Delay States
Xf = cell(1,0);
Af = cell(2,0);

% Format Output Arguments
if ~isCellX
  Y = cell2mat(Y);
end
end

% ===== MODULE FUNCTIONS ========

% Map Minimum and Maximum Input Processing Function
function y = mapminmax_apply(x,settings)
  y = bsxfun(@minus,x,settings.xoffset);
  y = bsxfun(@times,y,settings.gain);
  y = bsxfun(@plus,y,settings.ymin);
end

% Sigmoid Symmetric Transfer Function
function a = tansig_apply(n,~)
  a = 2 ./ (1 + exp(-2*n)) - 1;
end

% Map Minimum and Maximum Output Reverse-Processing Function
function x = mapminmax_reverse(y,settings)
  x = bsxfun(@minus,y,settings.ymin);
  x = bsxfun(@rdivide,x,settings.gain);
  x = bsxfun(@plus,x,settings.xoffset);
end
