function [Y,Xf,Af] = NNCircle2(X,~,~)
%NNCIRCLE2 neural network simulation function.
%
% Auto-generated by MATLAB, 10-Apr-2023 21:33:28.
% 
% [Y] = NNCircle2(X,~,~) takes these arguments:
% 
%   X = 1xTS cell, 1 inputs over TS timesteps
%   Each X{1,ts} = 10xQ matrix, input #1 at timestep ts.
% 
% and returns:
%   Y = 1xTS cell of 1 outputs over TS timesteps.
%   Each Y{1,ts} = 1xQ matrix, output #1 at timestep ts.
% 
% where Q is number of samples (or series) and TS is the number of timesteps.

%#ok<*RPMT0>

% ===== NEURAL NETWORK CONSTANTS =====

% Input 1
x1_step1.xoffset = [0;0;0;0;0;0;0;0;0;0];
x1_step1.gain = [2;2;2;2;2;2;2;2;2;2];
x1_step1.ymin = -1;

% Layer 1
b1 = [-2.300968432877153802;-2.2640243650675055953;2.2533313255614624282;-2.2309116635362382652;-2.2625786235214975228;2.1972117842061753556;2.1270312988904191975;-2.0243564103921896091;-2.0494995008977130446;-2.0237900710436633744;2.0108116040735994901;-1.9739563722996724682;-1.9448959426692673524;1.9478192493473780456;-1.7507210483438317983;1.793785886663854523;1.7475997336183453079;-1.8092166782384269119;-1.6993249875036564589;-1.6668467308730912091;-1.7370733600521144346;1.6165400107981693356;-1.6444098004278617786;-1.7338128874285216874;-1.5715982988769006123;-1.6004873216879540454;-1.5157902957710611691;1.3990999911352415275;-1.4469652750899433258;1.410750574582718242;-1.3196929944071544849;1.3363883682521069396;1.2464018207049714082;1.2632595243815647468;1.2213200187952846232;-1.2032394317482195678;-1.1946297888343386795;1.2113741705408567206;-1.1195193024471969956;1.0341595343029985621;1.0518109806544146956;1.0128665416899123031;-1.0195941973984326001;-0.9587495034689222928;1.0513163342300848591;0.9118479193993018761;0.85179952539605552353;-0.80530229636614936162;-0.82571325532701944638;-0.80317804910362577964;0.85715724219183997423;-0.7335512199115209464;-0.61821739646100615229;0.57632988235583559877;0.61643401355562599253;0.74000100704908100546;-0.52056831296647643192;0.53891948619873430992;-0.62034064499338681387;0.6001565914192131812;-0.4393961052651821908;0.37887553088803510581;-0.40795665517819584833;-0.38447162425517061868;-0.29160632691333765454;-0.32717413731572986269;-0.25713267435256020876;0.24035060629678062227;0.2722412156259882976;0.15720529527466634012;0.026020608104024862267;0.12777775131766239136;-0.084699365055345879338;0.20728709113555016108;0.052934561529523270484;0.047148312930143432276;-0.057309128341698004072;-0.10397205756972660584;0.031314152632793655628;-0.15494834662003578729;-0.14063289124977121358;0.18797735517392816229;0.22747242759315142169;0.28395059537421851736;0.29946222105515912792;-0.33905540774503933887;0.37281305957558713571;0.40371896753637681599;-0.41713971597595178586;0.45972172710879444235;-0.53543318588255084389;-0.54772300401412299387;0.46822293815902660263;0.61743660899451113799;0.79192085221210606338;-0.65564654410166789411;0.66181190816195856197;-0.63011034425562906236;-0.84443732769444057595;-0.76199921992438091056;-0.83623506381615408944;0.82234638781613611513;-0.84832869485279815969;0.90229566852010023581;-0.89653022667530979373;0.95780037126874328912;-0.95386837757376030655;0.89418572960923659032;1.0020480475563824374;1.1215321812256433542;-1.0018479937375366351;-1.0835991218042666517;-1.3168023655742486788;1.1416467615560870197;-1.2111287536339463422;1.2277635373032951271;1.2405507766108359036;1.3084718049314025823;-1.2536722540367801759;-1.4214375818247668715;-1.38425117065901504;1.4689494129730953365;-1.4846384592142454206;1.628530918189700305;1.3946168434644758971;1.4262894580936253952;-1.6032444918885671026;-1.654750607110002214;-1.6151663067929178386;1.7196872852308975332;-1.6760020265787884952;1.7050776412404040627;-1.7585500256852810708;-1.7735754911017767022;-1.8366868763706225565;-1.8038000859550289423;1.9757396956044681602;1.9412279708121977784;1.976460282455674955;-1.9837909108430311633;2.0369151707201900159;2.1138898137163044666;-2.0203903722917737618;2.1184616803250810868;-2.1718632375187483241;-2.0993435328330214418;-2.2208511988506112189;-2.3020575691902678273;-2.3021831009577358174;-2.3075158533015014406];
IW1_1 = [0.56671124800580130465 -0.15236635599617340264 -0.96687098808538640693 0.71167792927904072187 0.68578212761661061503 -0.12308654648273878451 1.1012458270871283705 0.98082560527107798265 0.048999747825847927984 -0.71329473001715482106;0.9157582141135004461 -1.0113645125992793972 0.35130630014406927231 -1.0875601101361656031 0.092389544117145852575 -0.80397479132448301797 -0.52404196464843444403 -0.85606388422464274601 -0.062983531811830556491 0.65830376222926212382;-0.70013805579419408076 0.56701936847061018554 -0.83750699738945255657 0.054544109795030541743 0.78896957306237480712 0.87724280544121790992 -0.31416013391216024431 0.88432039599821965492 0.7069846073450578583 -0.3404244222251064933;0.95223710362786828654 1.0407171125670469092 -1.010063325643418386 -0.16870734483856555941 0.46599795762582818526 -0.3968533764073599035 -0.20946491227039926164 -1.1360566979908124363 -0.34434704829290652128 -0.58760765384630953001;0.49512622150041063485 -0.099395314738045095759 0.13982876003617725202 -0.19265869030251128735 0.28499279935229371308 -0.84295660436955488493 -1.6409042674333453871 0.79572956707074737892 -0.28479439857740246334 -0.67258729292617014384;-0.77682640084604515085 0.018972379255609586601 -0.82468394163221581117 0.57098858164752896993 0.68631716791141494927 -0.96134461139290139364 0.36676972303655963614 0.60000824705418520644 1.079876299603145462 -0.17378434028163697311;-0.6411017284404214589 -0.46649108875717520961 0.97479747424424401103 -0.51558625312013250941 1.0934732592144376095 -0.581706375990614033 -0.28235464004944427208 0.092461540487602203453 -1.3449223085548207557 0.16034535881824407699;-0.032902553599225857484 0.77117256266904976592 0.64884110726194943464 0.66504084075422964517 0.92481508345527185799 -0.90629142995999467658 0.94653266240163747014 0.56352408201680148636 0.82200372296522050686 0.147795421116475173;1.195195349372480953 -0.34296452253166209712 0.56361862810298557491 -0.07225128849519309171 -1.2838567613684759294 0.0071611911227451689743 -0.24776797395974595184 1.0320988310593093296 -0.81097503977145868337 -0.28032741121750059943;1.1189574185191484279 -0.939859174645755302 -0.82014030731920517514 -0.94512300732758192101 0.83486266772394945868 0.59956554356893065894 0.26419428097640329511 0.33737728328469307471 0.26724584169100723541 -0.26834265620944519615;-0.93826460663731592327 0.73460685176156492737 0.53128027398725707897 -0.86212633618992573492 0.18934715664870047092 0.33396417152352403379 -0.98407649449219114501 -1.0138734620400347008 0.2666220232792027578 0.081588187320298752314;1.0993490044152129936 -0.28787246606567468143 0.040256784172579176961 0.48227035408471130573 1.1371646566235171782 -0.91826775737409693789 -0.37296176838419037303 -0.61142340725921684452 0.40407945111313192665 0.28649791416631403829;0.94163796628530249677 -0.50513627618573431199 1.021270102284514314 -0.030175367937027304521 -0.037324796095954453079 -0.87591052816926662228 -0.53325359007673889256 -0.60236466121826304221 -0.3591893337813363285 0.96281899366670953277;-0.10139777212174898302 -0.3099385960262588946 0.42399013692054854374 -1.0432218494636027462 -0.087962367725203008395 0.72643412986070743376 0.79523170729092151898 -1.3600494805571643475 0.30952371219250834899 0.6279196459788773943;0.71209946877204477467 -0.67765172417247510062 0.58470242684642348419 -0.44471546336150902246 0.58113019005782906579 0.79458581400013261753 0.83117257753793194475 -0.92184896139832028794 0.6767408397369676365 -0.095407412974230179636;-0.93818177918133904836 -0.90826342014266858715 -0.1248733966878832341 0.21484509157344097718 -0.81813657845580289862 0.18715486653610982626 -0.3007547986184226918 0.17604131153683361122 -1.2338443203749498434 0.85341517556545776202;-0.14584622236499691916 0.94157080723422847957 -0.07425944186547991932 -0.68895313786999834438 -0.039406814475490603566 -0.71449870776844293108 0.39642506534342542013 0.76192906513344105246 -0.80704396259741362218 -0.74253031191869500738;0.73485061403021634252 1.0380469040670339265 0.55023651041686294505 0.42793508886559034066 0.70576664933486366049 0.64396052963563610305 -0.22255007643611934842 -0.30827425502774175037 1.0102565375494361177 -0.91641143232386734763;0.85339533448930648962 0.19546581864050416311 -1.2375365050503719377 -0.72884863087560980421 0.14898173834369818347 -0.26036344460539501133 0.23232436128180330992 -0.33569377560885110823 0.48443723141151068257 -1.275702938962444577;0.89479806265923644837 -0.91911041895718781358 -0.67571275250869367035 0.78357087781411394189 0.59654663326858625716 -0.48769204582635128364 0.67776736685238547775 0.97440281746390244866 -0.51758976865554162661 -0.60152205512900658313;0.44568499680860762524 -0.79395755165972070611 -0.85896127198706728745 -0.79799730066336749257 0.71424187265406302583 0.66539793684033110566 0.23687477589856884008 1.1137576422847830226 -0.21135448065969231202 -0.46735871636044545863;-1.2458937920059176552 -0.31819586397106358611 -0.35554357973538924798 0.55330553964756967744 0.088644706614448467996 -1.1928060128373643156 -0.34657513971117998031 0.39723919785184591547 -0.95771403915008690433 -0.56624788164423944803;0.73017282301378227949 0.70669751790735313435 0.66208959275673395783 -0.5887672457750739996 -0.48127698243583910687 -0.88192936682961131645 -0.51091745014904565991 0.96694099989774995318 -0.45802838358552516729 -1.0006426956150964447;1.0354561968073465739 -1.1015958905073317542 0.73768204683566018787 -0.43172891673158636516 0.42080066478870231661 0.43348729131891394761 -0.17892932734119648686 0.59946499419234478001 -0.51485823677093389694 0.056757919109439544658;0.33335055275431602073 -0.85445222613236659903 -0.85705619717786518663 -0.81075977931565523793 -0.86246566572284955043 0.15952003827872501818 -0.20205334884450179556 -0.35060902060680626535 -0.28975869707964074795 -0.85501532773084898409;0.86779295293948977008 -1.0581436592222868143 -0.24807624963614380298 0.22304353066062251876 0.42312453576225117491 0.077237663387216756727 -0.40333354209995225803 0.53686299077673560465 -1.1460119262379457883 -1.0333103196174442395;1.0086047607831907236 0.61226558568867550658 0.092807298293802090172 0.76834506317107431617 0.67852509512404257652 0.98279123157822645407 0.255110499008054048 -1.0488913895440035162 -0.59973605919486105975 0.55552222163676923117;-0.33053024612384857006 0.69000397558092718686 -0.25551265865777961217 0.15797966932113011174 0.72774465458085124681 0.72445796977049992105 0.79199525001702597571 -0.599977372493756822 -1.2088968232365029376 1.0960639601541899424;0.43828817107241863082 0.41399773464157990643 0.41239666308320460653 -0.18967829443588885008 1.0773087749240932709 0.74908155675666832085 -0.25003577778173990964 0.46502940513211155071 1.0182749574211316101 1.269437009542968342;-0.84600908813669117858 -0.13092950067041769779 0.38885974579971205323 0.4994891338624491417 1.4990621109887485307 -0.53051399860600634284 -0.21606928051951784786 0.039508554687291877472 -1.2047510210947851572 0.27572096100400733665;0.47947315763783299181 -0.02870461932668223054 -0.40086519251954050302 0.31676096928689623233 0.59813199598041799643 0.46018786556045049307 -0.90192109647459983712 -0.26948544873683999423 1.0665900028085859574 1.287050144822636355;-1.4503512647843956884 -0.64203255835389594353 -0.20324925626118278688 0.56456628386904694761 0.24003199848420964102 0.17451846046415739333 -1.468751791580431787 0.32201424762929986567 -0.30536592640473614324 0.17894728157498926424;-0.45534413665215978106 0.61332469431769842672 -1.2251120933579728867 0.32767439230544803674 1.0086447318826015085 -0.16079422260319053972 -0.40796580091718853689 0.64193427047811502106 -1.0614642926172059845 -0.0084622763990746668883;-1.0818894697253786941 -0.67985703680305109575 1.0673422159631282824 0.86030840532917784991 0.15129465585719578669 -0.90884946386582565747 -0.40383025062098071301 0.14869334214433285735 -0.23399102027346163624 -0.29018743823173481777;-0.96974513414389118537 0.49919390219246145834 -0.77770414060005754742 -0.7152699068586987341 -1.1634806234371037892 0.7954927304508270236 0.23035275898923598947 0.14082684455321914374 0.50232958753627410253 -0.13770799173264547388;0.79459833678912672461 -0.77560873130485419313 -0.96607425624266074493 0.49834610310066196348 -0.93851831078252156981 -0.41528653163270567994 1.1611703429789261843 0.20344690559127018292 0.68632772392492358282 -0.023289692625108746743;0.47937631681355374891 -0.34339097945636248843 -0.38955939409744677615 -0.57331451669586575015 0.92342567429699506931 0.3348046997213561804 0.96895189859130803622 0.21506999421374825565 0.0080450129533477608007 -1.1220842426910959677;-0.49237368620497945493 0.41395185917845039869 -0.86983215645535749694 -1.0180658414355123753 -0.0015316521312706105843 0.59034433581179901473 -0.10969201340179346449 -0.99790359406726991676 0.52209035655607549664 1.0484190683186509485;0.92629583149847893875 0.5810839779767381641 0.048099785563825381285 0.26757359693469645601 0.70630420736400811865 -0.82945420006330949914 -0.52327213860453836158 0.38947397083663892747 0.85538088355726116241 -0.99851075725159399443;-1.0402874461436213416 -0.90626239905955008336 -0.33394693046556755966 -0.049781620020589258113 -0.48843144480585543032 -0.77194348168156967649 0.49432904390032711417 1.1236150362451287066 -0.96892455947441824549 -0.19409467317711032175;-0.22760008481551713411 1.2409389615646757576 1.2674216034709975265 -0.030662611966829164678 0.18288325783890010956 0.11820342841266842648 0.70067047543912597263 -0.49084613239999042023 -0.61316137333732512182 0.94890461784469826156;-0.35295628562963810015 0.6228714464194806677 1.0503669018386105893 0.42367235703431072036 0.34521832325943446751 -0.057749782373236378807 0.6296128262245892504 1.2709109036920913649 -1.1844579215473007849 -0.31112222210914974863;0.66741004372957879465 -0.012753883199255452996 -1.0773218420633465797 0.68609552812405483202 -1.1071209231772964898 0.94518344886840910402 0.54197644221903051864 -0.38979659617972456376 -0.75611685591814647989 0.28670084653415428555;0.72697098788544878278 -0.29307821839610170844 0.49942972470428736997 -0.49155947598538635157 0.29823836854926544238 0.76348485736797155887 -1.0011270781412378028 1.0208720776380895146 0.64659250443081661697 0.95692793745424420404;-1.0690842577942740732 -0.078787388290685808623 -0.82538648553136839681 0.44930326160692324322 -0.32342704333322214172 0.73708033551299123598 0.41461609826280698687 -0.25745583123455395569 0.75791384462428623703 1.1825740464430443133;0.097888759900152610971 -0.37891564258026227963 -0.083598451650214788966 -0.10789441038237183867 -1.0130191368742635927 -1.1159487546737896224 -0.092349570926636884161 -0.1095296789133121812 1.0041014615205536842 1.1331679804194658701;-0.14251488833364064912 0.050345787813628944951 0.1570146292645946684 1.0259538853463967545 -0.062573044911305497617 -1.3178273042758053002 -0.91142512290167232436 -0.89687999453916467107 0.25490976461041869872 -0.90143659975985157562;0.37901647685994788173 -0.043309688927186625051 0.90653253522729626557 0.56900113284150666271 -0.56970536224531620473 -0.78198333928407137705 -0.97473515573535252088 -0.78385493864162747446 -0.87948204107804284213 -0.49015455120285267299;0.48194139572758670775 0.63729398099220735396 -0.18072708611421153813 -0.58743083885247260323 -0.91295872654305065819 0.66841535914087335524 0.75243248255557981796 -0.56997377021267892072 0.95510309066373755282 0.93674100074962363127;0.60881979415514286824 0.70616811213717500806 1.142628756361139919 0.31443387138558748228 -0.74475090223648687804 1.0618762756151680637 -0.75617471951544723563 0.48779869700773254015 0.6856172500799003755 0.22163419477366061439;-0.59834465733702868473 0.60157758267025707166 -0.62412203388472264898 0.28182615670804361807 -1.1755979181558733337 0.53162450725842180788 -0.96818415971449212076 0.86765347583717977731 -0.74151233344998046526 0.0022548492159054954811;0.62641801658609075343 -0.41822879453780870129 0.72165380185609551145 0.18766863353262430714 -1.1354384469705738336 -1.352065784915475799 0.59551913260221089885 0.68788561677499759917 0.16412324609565581701 0.39000020855862660429;0.21442382111957647428 0.5793208938230527405 0.32365328028206813427 0.75649399329964206462 -0.80456988671148299552 0.44215784423617049415 0.87115077793864381661 -0.85669198611787655828 0.91445451543845002185 0.72864638035823947604;-1.1563898618090608927 0.017964593525620527192 0.017696087580506898729 -0.66102871337700730425 0.49372032159415402131 -1.1201931683374519721 -0.13249905983927501296 1.0475371645783582153 0.61764877600623835363 0.028997145272530801957;-0.93043735491335510801 -0.39586367304560382552 0.49408968904789363208 -0.42569840184336393829 -0.56007158179812732701 -0.94419507055283591335 0.47743064924318279196 1.0642981491913079406 0.86297618437236189859 -0.75773675898735093348;-0.056169080153322205329 1.3884113108100897271 0.54122571048548895334 -1.0766248873250894302 0.10476365323020235543 0.40691950283885219841 -0.97398671917035051226 0.74991970587537870596 -0.25344230819002827593 -0.06762189387817693631;1.040590340601201591 0.78069064596937387535 -0.76457513529789278284 0.96406248518936921155 0.37406411164700648087 -0.19394957035534349243 0.8622309476850165133 -0.93414849357532814267 -0.01770117393683868709 -0.16650879533511303565;-0.53237678581087355401 0.12195351839000594107 -1.2382830857151807535 0.52074807938607148294 -0.042821113455007116244 0.50071290709899696214 0.18312671834197477572 -0.40429994653796630377 0.20920567891083471923 1.639907316338489851;0.21408759886886474799 0.35004775087797795896 1.4915643832757810028 0.0025017883908801550816 -0.013952156650689691644 0.76135689345584511845 0.48343792688344572328 0.62708540907275689413 -0.75699638201482044586 0.49794872745406604242;-0.65026219995914547045 0.14420406088918444332 -0.99250372022280053397 0.33596839423578545025 -0.094826278654773582533 0.17696809242561176156 -1.1901644458150286709 0.68178719559792644311 0.71028291193706116768 0.59787069883290644423;0.6523861543534859031 -0.75907198657781582707 -1.2113715614731148662 0.1171429457621374487 -0.97858742843883295137 0.62324079663868547918 0.80832497433195593661 -0.7278006656074684777 0.0048049007651584547951 0.55543189194061937108;-0.90832517156366987532 -0.76024577726154907165 0.23725016839840887273 0.62050347545835415897 0.021286938950279613719 -1.0661599307708100604 0.92428626334445684876 -0.81418032729824740823 0.56831618098260250349 -0.62114732716455478556;0.07843347363082767143 -0.099067229922820188026 1.0744459172346831899 0.12233252657159163213 1.1231217347318662725 0.81286916664028086021 -1.1001102627181682525 0.58179343091040236491 -0.56601029089796395244 0.017919926102943777718;0.53391569526696669445 -0.74968623163076852922 0.43488170256986502515 0.56423576013661447259 1.03879247605076519 1.326329745437890173 0.11662843682908943799 -0.046964804008201854746 -0.97287218711693812523 0.18554628828498212489;1.0093646472019714988 0.90472099328058297463 -0.82354344073755259004 0.1209543520194347882 -0.56057213610019807071 1.0400421044381931157 -0.43801695638589960291 0.27938810392327917409 -0.021072188230333296216 -0.88486707914125983798;1.0756402173156558444 -0.58512679189916227962 -0.2923994151445123979 1.2329754953306093501 -0.72999403279079488893 -1.0157015695892448459 0.12343503081027165647 -0.67126525195604558327 -0.29540921957982041457 0.14931377228989856087;0.16839342112261698747 -0.97459351956917972259 -0.12145799365597197139 -0.9644346673269433845 0.25848143632779091439 -0.47061391876364067066 -0.37206227795612084597 -1.1774711988045032385 1.0157800167156207927 0.69822666950374956407;-0.8956677074075272138 -0.8396424360148274646 1.1784301173813243047 -0.98583003450675910084 0.34511776357602691467 -0.30786621720099499599 -0.23413555195021029665 0.82511382012882628079 0.68435937948833547306 -0.19785559599776061934;-0.86241705563940773693 -0.56556174285529614565 -0.82152159357332732448 -0.93642298160098980109 -0.28195371764978571782 0.40950242327097968742 -0.75618553654546660781 0.62692542083826474641 0.38182014301653260935 0.76879066815008700875;-0.61132957137477261789 -0.16563486847657954426 0.85552495345797874293 -1.0330601344782457396 -0.69296406809842203689 0.26285814340827634572 -0.64708836211743836486 1.0544057201462191387 -0.88412000082613162455 0.51580036591268951796;0.80587788552938199871 -0.33617464546788383695 0.29535238633390759055 -0.31176269443256837688 1.0149099805503158933 0.74028314029507535921 -0.94571083199205274727 -0.81876632440568175575 -1.0757953960242667701 -0.25486795923428101629;-0.57531722108875305022 1.0334209158372347215 -0.40724300506005628453 -0.16623114341495112689 -1.0770506804083541663 -0.37784226189610919944 1.0762194075895794576 -0.7977677805796604682 0.30693541796251738729 -0.0068251252782807018959;0.87272673307781778451 -0.20554078116237389784 -0.8524217638706079736 -0.29082943684380713201 -1.0412750731230935308 -0.79489384336041946089 0.53690947574146408172 -1.0611730450128835646 -0.51626390643254471691 -0.24966204313496462297;-0.53691545991773526048 -0.57487968363645025605 -0.09321507436930372148 0.54491435951910849322 -0.76633678916685754601 -0.8667883550604703613 0.95492040785565956984 -0.0093704412851687013397 0.97700740275262842882 0.62034739268366767551;0.89388635932054394395 0.8271388690035095248 -0.12895065669805208519 0.29004395942464888947 -0.62453327572497163711 0.51568003466865897089 -0.78751672659382154773 -0.5146546632308520719 1.0415149696699712578 0.3827101705900882167;-0.35966975424150626761 1.0676930186206379236 -0.9204914377162829453 0.55803055339607932073 0.23900416534347751485 -0.54187202747466389763 0.87322617585267359175 0.89208822971028112203 -0.41283924051968651225 -0.17508988291711355401;-0.86158712803675840952 -0.12749591364914311664 0.25096492663715097571 1.1788358901883246865 0.18696738883218111393 -0.27642202863037534932 0.75849193986431762138 -1.0512563953069036238 0.8611272994093990274 0.51028107619777651749;-0.48803688615122792216 -0.86435886253691973646 -0.61336688831130148358 0.81137205287147917687 -0.97603286690838142459 0.068513394992465906363 0.05397686535258941487 -0.81251492927220581031 0.86436716264151014499 0.82887904583335281217;0.43268713987014084665 -0.67396292020534642742 -0.33939008918340213272 -0.76993263049239490936 1.3999885103271492159 -0.81740617754630451319 -0.20317350512840504084 0.18273154673383804059 0.35716563403907591878 0.80274898046640907889;-0.072967517761603969961 -0.30604940846205924698 0.30678024429130729134 -1.1016582654375468575 0.72373641075114325538 0.43980602350480513252 -0.73304997002972460685 0.87890924716916130066 1.2234272164941233374 0.61991675747101904204;-0.36574452629470693976 0.29989067158722343409 -0.72126921153155854061 0.47986184558639194409 0.6551331797534081236 -0.15980398899143180569 0.64361343746202825944 -0.42648776113974645741 1.2077209317160380042 -1.1409532523007348548;0.68309879490956215697 -0.5518132022892685562 -0.43459683849810964995 -0.9567019687737758904 -0.95559010568183755385 -0.87589977838350452366 -0.54296161724184499597 -0.72826209269013020275 0.064651174838124728095 -0.26667248768464640873;0.25542831522004411093 0.30252293607700225797 0.33363217693608648862 0.059443511791793295085 1.1445869139162110351 0.95814921027591581915 -1.34791093541837248 -0.52481653314125842336 0.73650759276224009309 0.2879026720429005981;0.12124325669956526053 0.62077539816130711259 -0.64775618797578260466 0.089145815981837225883 1.3561307713966321842 -1.1227717390706186684 0.66676153994530606983 -0.85115838779017383153 0.24934159392415072842 -0.11675888618202263924;0.80927053111256164186 -0.66025105262689831598 0.65971105240671179537 0.70528543540302002235 1.0542105434599056135 -0.39051563349883289256 0.30710733010116780806 -0.0029246762410454572173 -1.0004977880428489456 -0.93151510308414064987;-0.51247352967715964489 -0.95769296546862869857 1.1327372221365119564 -0.048553141981743888622 0.85265764504407037805 -0.62411616736709152331 0.51490973644247661767 0.98696517067674849333 -0.13071753418332707208 -0.67244451470351762623;0.89346762949057256797 -0.69973053906304660821 0.8538342002089088778 -0.33698041781015075635 1.0094828781556519637 0.12774432107902602973 0.53682319091145291878 0.47872392846296502045 0.53118013125294516463 1.1564445085183301387;0.63051574178940006377 -0.47049521026226309717 -0.476063772325995338 0.45240963190334554378 0.098894629852836923867 -1.0617607315009671698 -0.096320869034196204828 -1.08206590847432782 0.036149776369301118983 -1.3550039175932644397;-0.45307434222787712486 -0.28720123749148679382 0.31857865834478066303 0.91586294326370509822 -1.2230334145411119184 -0.36092426928613668968 -0.41234346133310562088 -0.41350534634862273764 -0.48700334474262574336 1.3808422062101566308;0.099096841923795295215 0.018409312019508801417 -0.93642022524580537102 0.076087177986964890652 -0.14468585599494276916 -0.82306817232841911203 0.62876097884638371127 -1.0316126598667711978 0.97939084800175912893 -1.0064496309591830503;-0.92821349553869503257 -0.91115766915820683991 0.84118819933610733397 -0.2719638899095361273 -0.86692505308401945907 -0.83623127483868753274 -0.34253042346403517193 -0.0050930109485660124413 0.80778143234388832816 0.35732563654349180915;-1.0249577574466306462 -0.57820497155658101551 0.84743127224682290866 -0.74698393587755884671 -1.0476204354693097187 0.65030563324883583487 0.65695985213656582502 -0.19275819392329354707 0.80188655139396969318 0.030734641000667910216;0.0098831559104110375952 0.67699391149894816433 0.80351888747620092701 0.21551951411290204419 0.95699643326382677344 -0.5968081964462493838 0.6800603067361130627 1.273406175356727843 -0.40246039858658977373 -0.80684424855786940345;0.76388985438067080747 -1.323530498677237599 -0.68043412301393901842 -0.66181868001506960475 -0.45015581379007080232 0.28532492971745260224 0.90428434352033448818 0.84474527563458468027 0.35698944050973951958 0.27052180265087760747;0.81971466997375175279 0.89004451840937404139 0.2335275449556321048 -0.94116652366691866405 -0.38375507051024398963 0.97507127987383745982 0.025084513109979389434 -0.047367368202390444654 0.68760859039409183424 -0.71699141095685003933;-0.90373652239262047825 0.555850713895625681 -1.1509953703694371097 0.61276298165305609356 -0.4037454733824407116 -0.1642203412849341515 0.33721189753480285134 0.97050931556405639622 1.0382437175292382747 0.40619176079880547903;0.21482044670319308532 -0.077120947642018142232 -0.1811693110004816698 -0.75691884394740094333 -0.090390020284475292023 0.67834736395676109577 1.4275939532086181494 -1.2003536630121973694 0.56788775032875049575 0.31091240195198893703;-0.17044563705032411693 0.34047012640571755471 -0.56890433448252897275 -0.036745173281177663516 0.54924235762771078662 0.92318017483387770916 -0.054717786657224300184 -0.28518095420403860585 -0.93321866105120998558 -1.4761415494241436619;-0.85822565165893283101 -0.51054825453813745817 -0.61168488950756794154 0.37181084953156506856 -0.93948183414173269679 -0.082318947019768606843 -0.76690307385710321242 0.96892150016410494295 0.27312025195486300255 -0.81986337380980600642;-0.33600447706658531644 -0.07836102865876820589 -0.76227270248779155359 -0.33537094085288066125 0.68826004202624668782 0.32363284123779600954 0.97783324820584927028 0.84751302974462217055 -1.0089772868334885292 -0.89105319870341692656;-0.85150256037166327516 1.1328487045891049156 -0.11180678964755697002 0.61567961856842479129 0.083554482008181926722 -0.99611396994998269161 0.3106126567914369585 0.5763168674754871601 -0.16925205203201243442 -1.1589471782367861685;0.85648775465009641117 0.12616781857172676418 -1.1714045153849605985 -0.28326512347046300944 1.0332015576168389615 1.227196519435691302 -0.41753479427674844437 0.32278983301351371615 0.46993518956781749063 -0.18749120926887632987;-0.56687514605062150341 -0.068059872132561510805 0.31136908851899025574 0.41804015379372899686 -0.49968358976751514611 -0.91959371066684192364 1.1813750917553897946 -0.3644738890918857166 1.0445349535235104455 0.88099983302816264885;0.10985437954553825546 -0.90334424170439842072 -0.1934618438025712539 0.54617476708986867351 -0.10028695433494097533 -0.64383557955688475172 -0.80833198950120144222 1.2657799345936913138 0.98985357575513555073 0.49964701197743227601;-0.84146857201235303325 0.089686544792458883224 0.45834344820917338748 -0.053488661521922699349 -1.1710567408461542982 0.8244913023976271349 0.544254501366571386 -0.93735566789275137634 -0.008314730339177095475 -0.0091247676666548083874;0.29141364458010693417 0.34065166514831229927 0.57091725060118392321 -1.3574791707955480291 -0.9143751674720957956 -0.019189385562997159085 0.29537568249075230042 0.65580732530038077233 0.73810987074729605961 1.0263983753153016476;-0.79006689917151506908 0.73592100268870730417 0.4564429802356655963 -0.548577663668692872 0.60195349508036100072 0.98852106003412743007 -0.32753156102937064365 0.53918061172892683963 -0.2510541925739471214 -1.3151355470723187224;0.1359017835462175694 -0.17302536795958128879 -0.97336944661508006948 -0.095726273809347603438 -0.45571312932509655536 -0.1149694883037512827 -0.82617945553166538541 0.70207227022122897786 1.0002275098193311731 0.84700461022471162931;0.29085451152961400156 -0.27030009052107395462 -0.91545441120521897638 -0.3532191302197109084 0.64089995265867039098 -0.50170635762615756192 -0.97135830784799492843 -0.22381581294059832432 1.0742706591119624004 -0.80268930759916667927;0.52252893448941484245 1.0756419795071201495 -0.46552521294735987878 -0.6758815091716486867 -0.85242879573499008572 -1.1151227436053012809 -0.13242292960175780503 0.47948632249990597032 0.86099095009264980938 0.08365489353112437465;-0.094833376627335583264 -0.98706258778458688674 0.16644055004011285015 0.75194816305341272145 1.1452553086477201827 0.35197979130155970795 -0.74445178965343783428 0.79286815857447590083 -0.29468519146678634479 -0.69996438909635383396;-1.4835598633874074181 1.2889206757457292163 0.56140617905159995171 -0.20437926149918239638 0.089462925769456663749 -0.23936919908110182442 0.72351181743589498829 -0.62669967746645049989 -0.18442894472618887036 0.22818472255771238277;-0.64744137263729006904 0.90355617971526003274 -0.13552348807157299504 0.85947750006324463712 0.55702388127314961253 -0.10757253923977855292 -0.24443877293775845283 0.14718508005278432837 -0.68936607912856018299 -1.2902386532330942792;0.94928253502707737876 0.5139682741973726765 0.64374366247716019451 -0.20436407703498996047 0.97505395099974756512 0.3541315065426842712 0.60052239199231438604 0.91724863314034177364 0.70717052077465436533 0.53343985347306777101;-0.76044691445756107395 -0.84611714527298464983 0.462280667761708286 0.47673377553351542479 -0.4935362078796234897 -0.9669309792361270306 0.61573230489392216658 0.041886270764884936391 0.77284110671444328222 0.86740668690203481805;0.82796729667963675503 -0.5750829201810258029 1.2160765678972544901 -0.25468209399090591116 -0.21465768533323700828 -0.49355683094837721203 0.16585372497957837079 -0.44950193512855629585 1.0371792257469689691 1.1051928124344034821;0.14498177139724477414 -0.5106720386599282735 0.1093277278030700822 0.9411469453364792459 -0.098093591055254003575 0.85686825627008667006 -1.0539609934841140948 0.31150746602096790472 0.21507601258487818452 1.4969656497181256238;1.3835154895207011361 0.54677435507821736671 -0.56458184986107606829 0.56054076195275748251 0.64212336260597202564 0.56643144088241270673 1.2391795346906575581 -0.37343384902030080097 0.27907159091332672807 -0.13294257636698539327;-0.93806146863256356649 -0.88586055062606761101 -0.94498554990931715736 -0.23498413554484387511 0.62650888966969886518 -0.81440735882843817706 -0.50348803433830990883 0.60052980803782751718 -0.76995944529732418538 -0.58440708149485354195;-0.051825832244962094508 0.55266541612515784898 0.21849085048980818047 -0.72743224504405590292 -0.89400782228062725121 -0.85297866802378208284 0.9100532254911414265 -0.16131537407403065409 0.94745868232710950263 -0.92247670386865154857;-1.0327249700116287734 -0.97453870373600148813 0.66196606545612746153 0.71574245577043449362 -0.88371395975919897481 -0.96784472009072097798 -0.65894708976413574053 -0.00054720550330089557864 -0.034662771137796553889 0.043097633885085008532;1.1801714639122391493 0.45628503478576698527 -0.20258319201480101679 1.1334244941445725807 -0.33615493859714340452 -1.1204822531514988526 -0.29787601159364046621 0.46342445212912386499 -0.69588164190873591508 0.23114596163047851363;-0.9447190103786369253 0.051367639792800755261 -0.82475163149764685322 -0.37268456499547891747 -0.88952663366139128609 -0.1606751677984426252 -0.8340969875923106569 0.92379877612935590303 0.80516543130924234095 0.5602333828626536727;0.78988595003368622383 0.7521576556793910795 -0.65193893014743020675 0.47805565732345289831 0.043272042756256338947 0.50117403615499322989 0.35995986145821551316 -0.43915062725205489258 0.63968386128884602293 -1.1982520667752589727;0.85268297699345596552 0.55599718286682098256 -0.92238767637804985888 -0.043532446498118104738 -0.42192038325797442955 0.29179672304808318417 -0.88606241639579674807 0.90332512370096351706 0.86963269565197309774 0.50523001548642609837;0.84172754029952889798 0.87431972113025790971 -0.52755404603321320867 0.73767320864026142413 -0.86215486387116546663 -0.053551558276923517943 -1.0902630726341453471 0.64480202176447010132 -0.39575473581441217297 0.044998416290027327957;-0.92726311037676478755 0.91723281710237980491 -0.18922363836092753742 0.6159440473560006124 -0.56156003312085145396 -0.81077157769388974451 0.55549910423327220066 0.92619653210216867922 0.37708731321783089951 -0.83621431953432079354;-0.23500304443806499521 -0.42484624174567309218 0.051552562501870555223 -0.89423921240148218637 0.98204932901409558443 0.3113207707769198862 -0.39942278297469896442 -1.195289091615400201 0.4536813809055648683 1.1284164641790832562;-0.67709298460559930177 0.6015884656627107363 -0.16572650077078215913 0.97335033042243401802 0.42829924686493692221 -1.0771016620471678404 0.33182947479638280619 -0.39459024657505159528 -1.110974065574722891 0.3310089799716974257;0.90371752279601869073 -0.72095620980785657395 0.97893652427495680968 1.3032507806570412523 0.059296356004406802764 -0.76304126876197142515 -0.32520692447599164332 0.4049875173831405939 -0.3166376538860329326 -0.1191089638054246419;-0.095274418448660330716 -1.1014990011702188166 -0.055153850442870785975 -0.084596662242718917435 0.99503396814764555334 -1.0040346701792119966 0.29719742403595544866 -0.4378072758158404465 -0.6837624095636745114 0.94587686231457834829;0.81636547838785855635 0.5449288064556633282 0.86179659224474236545 0.78283548515626855124 -0.82715235519584096036 -0.69121520023871407812 -1.0241740462730923866 -0.64746953779780513916 0.51228331831125195617 0.32607847987870008932;-0.83525368628485552325 -0.10271257231032857038 0.429910547688773792 0.26771659408677628278 0.54954049179076402964 -0.83860496656182881292 1.3146406467408269236 0.79909852897823707707 -0.53140952784130013331 -0.17524055213158157285;-0.55262765371980360207 -0.048659826785715704078 1.1528150041570308648 -0.85001127541279197786 0.55676282610240113158 -0.71851350412976444648 0.72618272992136534416 0.29781806949817196672 0.93735651410159970265 0.8603381567785226558;-1.0159944556538407223 1.1814036298246550771 -0.81120752804283791093 -0.77180153551370089815 0.21839133475202748835 -0.39410416421007632426 0.77460235343908934169 0.15689253128189556419 0.85306839365187148161 0.032429289110312099764;-1.1120920026465692665 0.45127950670115818399 0.6022396362329951458 -0.34427217911190632904 -1.0127187354701332467 -0.58735003925443540762 1.1598290214139950205 0.51545587211080656775 -0.35198381089052549475 0.15194725249492618824;1.1255910923734804285 0.33199475984627274672 -0.65283693496765859976 0.67268914362096354775 0.2240326699875267169 -0.79987660894318046712 -0.341561460001635675 -1.2722197849516871937 0.0092724559805793908829 0.55807853043787092329;0.30620943490977636792 1.2248488617206454432 0.58271981831982389011 1.0346765967872986192 -0.71287863166909648527 -0.87883293569307729953 0.36487927638735812019 -0.48794315562573420397 0.64262158034778549265 -0.43058815889094642637;0.1343158070232303436 0.86743148069433106961 0.48300821154657891388 0.64950807084668926716 -0.88164392780723799259 1.0976814035080639798 0.212876591183178282 -0.028478954832275565207 0.80991780881585928586 -0.69287482053428461892;-1.0926104316843778808 0.24605455139347562343 -1.3548869375039729324 -0.55346058868989811419 -0.85926098183200927405 0.62952857536753337175 0.12087420248625027619 -0.80259844668744584339 0.33751051622497058036 0.25342111287089441607;0.80732450427799895554 -0.74846777259410768313 -0.58667518162018639227 0.32789530854200693577 1.0519221902840585336 0.23019208854875439219 -0.4320912597316492465 0.54021611661527313419 0.28069435448889346052 0.94491479036857894958;0.35505949596030245141 -0.64363772815439157515 -0.65560471023877886498 -1.0058223613839503141 -1.0365976646432184527 -0.71897476937353588244 -0.63429243710597327244 0.94883594108264934786 -0.39354989132469070379 -0.22153619852497635767;-0.44931723358823605352 1.0736161528285257383 0.54978519625064248277 -0.83919172594165714063 -0.68115410185835167933 -0.56117674483631829752 0.10015504720008813755 -0.58993385081417248905 -0.16821106239739427868 -1.1718312633277878643;0.017942800187688959929 -1.1012167992357144719 0.81934204337443516941 -0.77444478594967003371 -1.0126131062959573548 -0.92465564236453035019 -0.62803037058105382062 0.53430546424132707717 0.50978772319828202786 -0.10006393910228723876;-0.30726025409418872281 -0.27571624042565512358 -0.41335115617256096288 0.54198619849273210747 -0.060710405054236200872 1.1350919806179475824 0.88763559101184963396 -0.96300766899705581015 0.941106315667941562 -0.5217523507088595025;-0.86515898639223853817 -0.75041062820336879025 0.70653181239551154924 -0.068641607119882125376 -1.2182165197588550321 0.50951174833772594486 0.98764807303778645586 0.82311319369116886513 0.47242068651174012883 -0.25367952773019808443;-0.53920885206174651305 0.97748984599495647441 0.34156491093945257065 -0.62388507546592486541 0.84133080767097678798 0.13671126557487844888 -0.9285207364364228555 -0.72826066379351117597 -0.98328978258354915454 0.67715976850971015821;-1.0403309199050392309 0.57345617882769650553 -1.3864231747297823816 -0.0302345697938796662 -0.8911259170778129679 -0.59523216073513507407 0.095516405218573532943 0.29536335003172747848 0.46459845426475748775 -0.27660063237732146479;-0.7805359897718522344 -0.045052415979280883984 0.32525777531228028394 -0.83257230027737672007 -1.1108265336305847004 -0.84020465768024876763 -1.114515967651005468 -0.3498278992625287187 -0.2464571849099091716 -0.23168022188183545751;-0.8156301786948856325 -0.093806843866786282504 -0.35536086535456146152 -1.4005066653673516885 -0.60475621304864002337 0.38743321473409442213 0.95275783170426442403 0.96682555820602600338 -0.1948856490151394949 -0.43888549355438732924];

% Layer 2
b2 = -0.98153238863886760335;
LW2_1 = [0.00026272589383246182457 -1.7215934922335028676e-05 0.00069459026933802630373 -0.00054521909473837957497 -4.7920472554154242874e-05 0.00027142093427033614364 0.00080794109114082314146 -0.00039445158513865555489 5.0765976215636870973e-05 0.0010434177417063357149 -0.00029812004602347607143 -0.0003664981955567245004 0.00056137002893440820107 -0.00013769344154420268766 -0.00032222449752198115656 -0.00048671998814829841576 0.00016669317567214483834 -0.000315378891048054299 3.6390292264533533615e-05 0.00017054256579988392225 -0.00047048779451679188617 -1.5879100234435147019e-05 -0.00072151330176824452281 0.00036327221830236824853 5.5032970524375130568e-06 0.00036608025827719424669 0.00028449965001592396807 -0.00041502622831987774112 7.0742007748952597185e-05 -0.00046113679609735525825 1.3022800679683462085e-05 0.00044643409632161670016 -0.0005037414344895613412 0.00031952053248181981702 -0.00018529292052785428747 -0.0002034553615600327367 8.4407619170867890721e-06 -0.00018876341195238628798 -8.3580734217040704155e-05 4.2309738671138542583e-05 0.000197066939948773275 0.00074813854187078204869 0.00064746825233587788906 -0.0004695855195845243424 -0.00071257023545951054828 -0.00059837729054924924509 0.00030741781978638958424 0.00069440310309877421348 5.5791127677911098821e-05 -4.2176825844563704761e-05 0.00010889372223556509811 9.7357580416730990632e-05 -0.00073487135059529899977 -0.00051994083527169771344 0.0005226969020741719903 0.00049616407611881665519 -0.000412620186203367927 0.0011226259097568747937 -0.0004933905257654683978 -2.5325597830427122505e-05 -0.00059733411747364792595 -0.00020629842767645750366 -0.0002253169255940869805 0.00061083866380222612627 -0.00017260499610909755294 0.00013300277266057805451 0.00032157745615487729959 0.00039691125711320296996 4.1470719220174540346e-06 9.2760216941475240912e-05 -0.00025044378978117333608 -0.00025440365502400687399 -7.4060460321556160655e-05 -3.7789678382901055638e-05 -0.00020558854924562818337 -7.6688869474385198662e-05 -0.00031956059850803516164 0.00030397095487925154767 4.814928468567641613e-05 -0.00040371941452612618122 0.00021002035728349529513 -0.00011030393715307484621 -0.00030070860376690155451 2.4076717167026863154e-05 -0.00053273000097173455088 -0.00076652847591087683223 0.00015715923367583351585 -0.00092096381370398213567 -6.5329861859927457939e-05 0.00084438029496725671829 -0.000303305093406329245 -5.295805815890674412e-06 -0.00021014500738231265808 -0.00035183056705301361897 0.00055333033136332749995 -0.00011377436829222408181 0.00024142810513955561061 -0.00036137123090874571701 -0.00076627218779003940328 -0.00085027557343877254066 0.00035053081792149837301 0.00049739823378564939228 0.001026024394951318558 -0.00068342277880885946104 -0.00028442816809273513325 3.3476057889435028919e-05 0.00016538050253788746198 0.0009599266495467369785 -0.00064373884179989425847 -2.7466700655271781856e-05 -0.00011094443959189237425 -0.00064568642502180661948 0.00048327227976951460647 -0.00023167417565275299487 -0.00046433406276700763199 0.00041151102257049325568 -0.00037913924981161140938 -0.00030260475200568254283 0.00075804777301987811763 0.0008336101138155089206 0.00051219274567700372354 6.5893142181586925868e-05 -0.00017764472031589460007 -5.4176919951353489399e-05 0.00034691998484722276572 -0.00029319076402173636963 -0.00050416645530822526942 -0.00043007453998824055324 -0.00018292180428755637446 0.00052466164775854065051 0.00041935577874769875816 -0.00024031488729702211462 0.00066657648668250950134 9.012379940103945478e-05 -0.00040255234967371443999 -0.00058041620132932283602 -0.0007315921382561543394 0.00045946395406442334551 0.00061732197436999917527 0.00044621571225544480509 -0.00042877831643073360552 -0.0005885212273832555064 0.00037677694274295368826 0.00014359389328861039167 0.00037800801134356469503 -0.00072764352890385705728 -6.6651424937572755565e-05 0.00054180998642029145305 -0.00082903407241418551957 -0.00039078104782557697905];

% Output 1
y1_step1.ymin = -1;
y1_step1.gain = 5.32353755082738;
y1_step1.xoffset = 0.000933473980130958;

% ===== SIMULATION ========

% Format Input Arguments
isCellX = iscell(X);
if ~isCellX
  X = {X};
end

% Dimensions
TS = size(X,2); % timesteps
if ~isempty(X)
  Q = size(X{1},2); % samples/series
else
  Q = 0;
end

% Allocate Outputs
Y = cell(1,TS);

% Time loop
for ts=1:TS

    % Input 1
    Xp1 = mapminmax_apply(X{1,ts},x1_step1);
    
    % Layer 1
    a1 = tansig_apply(repmat(b1,1,Q) + IW1_1*Xp1);
    
    % Layer 2
    a2 = repmat(b2,1,Q) + LW2_1*a1;
    
    % Output 1
    Y{1,ts} = mapminmax_reverse(a2,y1_step1);
end

% Final Delay States
Xf = cell(1,0);
Af = cell(2,0);

% Format Output Arguments
if ~isCellX
  Y = cell2mat(Y);
end
end

% ===== MODULE FUNCTIONS ========

% Map Minimum and Maximum Input Processing Function
function y = mapminmax_apply(x,settings)
  y = bsxfun(@minus,x,settings.xoffset);
  y = bsxfun(@times,y,settings.gain);
  y = bsxfun(@plus,y,settings.ymin);
end

% Sigmoid Symmetric Transfer Function
function a = tansig_apply(n,~)
  a = 2 ./ (1 + exp(-2*n)) - 1;
end

% Map Minimum and Maximum Output Reverse-Processing Function
function x = mapminmax_reverse(y,settings)
  x = bsxfun(@minus,y,settings.ymin);
  x = bsxfun(@rdivide,x,settings.gain);
  x = bsxfun(@plus,x,settings.xoffset);
end
